{"learner":{"attributes":{"scikit_learn":"{\"_estimator_type\": \"regressor\"}"},"feature_names":[],"feature_types":[],"gradient_booster":{"model":{"gbtree_model_param":{"num_parallel_tree":"1","num_trees":"120"},"iteration_indptr":[0,1,2,3,4,5,6,7,8,9,10,11,12,13,14,15,16,17,18,19,20,21,22,23,24,25,26,27,28,29,30,31,32,33,34,35,36,37,38,39,40,41,42,43,44,45,46,47,48,49,50,51,52,53,54,55,56,57,58,59,60,61,62,63,64,65,66,67,68,69,70,71,72,73,74,75,76,77,78,79,80,81,82,83,84,85,86,87,88,89,90,91,92,93,94,95,96,97,98,99,100,101,102,103,104,105,106,107,108,109,110,111,112,113,114,115,116,117,118,119,120],"tree_info":[0,0,0,0,0,0,0,0,0,0,0,0,0,0,0,0,0,0,0,0,0,0,0,0,0,0,0,0,0,0,0,0,0,0,0,0,0,0,0,0,0,0,0,0,0,0,0,0,0,0,0,0,0,0,0,0,0,0,0,0,0,0,0,0,0,0,0,0,0,0,0,0,0,0,0,0,0,0,0,0,0,0,0,0,0,0,0,0,0,0,0,0,0,0,0,0,0,0,0,0,0,0,0,0,0,0,0,0,0,0,0,0,0,0,0,0,0,0,0,0],"trees":[{"base_weights":[2.2555246E-4,-2.5322294E-1,1.2788369E-1,-5.207395E-1,-1.7099133E-1,5.608634E-2,3.6098185E-1,-6.9872373E-1,-4.4139722E-1,-2.5547737E-1,-1.2260762E-1,4.8077325E-3,1.3102275E-1,2.8546166E-1,5.5711246E-1,-8.745035E-1,-6.5529555E-1,-5.057694E-1,-3.9301264E-1,-2.9513893E-1,-2.218188E-1,-1.5625294E-1,-9.206417E-2,-3.4916725E-2,2.159319E-2,1.0046557E-1,1.6790639E-1,2.465245E-1,3.4892747E-1,4.9306583E-1,7.194925E-1,-9.032419E-1,-8.250056E-1,-7.1515137E-1,-6.15317E-1,-5.3582466E-1,-4.618299E-1,-4.351175E-1,-3.6452624E-1,-3.2868177E-1,-2.6525325E-1,-2.5265902E-1,-1.9375299E-1,-1.8537518E-1,-1.305356E-1,-1.1911886E-1,-7.177113E-2,-5.3609062E-2,-2.262656E-2,6.0205576E-3,4.623497E-2,7.4910566E-2,1.2318221E-1,1.382375E-1,1.9948865E-1,2.1323226E-1,2.8074512E-1,3.2253993E-1,3.8366E-1,4.588411E-1,5.5072176E-1,6.550986E-1,8.308268E-1,-4.6542358E-2,-4.224762E-2,-4.364164E-2,-3.877474E-2,2.2566364E-4,-3.5890337E-2,-3.241313E-2,-2.8550375E-2,-2.823774E-2,-2.527353E-2,-2.5248414E-2,-2.1978999E-2,-2.3078041E-2,-2.035991E-2,-1.9924745E-2,-1.7204618E-2,-1.7721374E-2,-1.5365769E-2,-1.4479187E-2,-1.2067993E-2,-1.3592853E-2,-1.1872688E-2,-1.0586385E-2,-8.581603E-3,-1.0239535E-2,-8.476367E-3,-7.356792E-3,-5.4556276E-3,-6.655255E-3,-4.9620843E-3,-4.1968804E-3,-2.5037348E-3,-3.545541E-3,-1.865208E-3,-1.7615113E-3,-4.4445498E-4,1.2056504E-4,5.594868E-4,1.532344E-3,3.1939957E-3,3.0069423E-3,4.511181E-3,5.5152862E-3,7.4230656E-3,5.397236E-3,7.4805594E-3,9.128261E-3,1.0970448E-2,9.690333E-3,1.1921372E-2,1.2976824E-2,1.5057841E-2,1.5030855E-2,1.8027619E-2,1.7900005E-2,2.0685518E-2,2.1328643E-2,2.4306979E-2,2.5988614E-2,2.9402724E-2,3.1460136E-2,3.4939043E-2,4.00934E-2,4.9803212E-2],"categories":[],"categories_nodes":[],"categories_segments":[],"categories_sizes":[],"default_left":[0,0,1,0,0,1,0,0,0,0,0,0,0,0,0,0,0,0,0,0,0,0,0,0,1,0,0,0,0,0,0,0,0,0,0,0,0,0,0,0,1,0,0,0,0,0,0,0,0,0,0,0,0,0,0,0,0,0,0,0,0,0,0,0,0,0,0,0,0,0,0,0,0,0,0,0,0,0,0,0,0,0,0,0,0,0,0,0,0,0,0,0,0,0,0,0,0,0,0,0,0,0,0,0,0,0,0,0,0,0,0,0,0,0,0,0,0,0,0,0,0,0,0,0,0,0,0],"id":0,"left_children":[1,3,5,7,9,11,13,15,17,19,21,23,25,27,29,31,33,35,37,39,41,43,45,47,49,51,53,55,57,59,61,63,65,67,69,71,73,75,77,79,81,83,85,87,89,91,93,95,97,99,101,103,105,107,109,111,113,115,117,119,121,123,125,-1,-1,-1,-1,-1,-1,-1,-1,-1,-1,-1,-1,-1,-1,-1,-1,-1,-1,-1,-1,-1,-1,-1,-1,-1,-1,-1,-1,-1,-1,-1,-1,-1,-1,-1,-1,-1,-1,-1,-1,-1,-1,-1,-1,-1,-1,-1,-1,-1,-1,-1,-1,-1,-1,-1,-1,-1,-1,-1,-1,-1,-1,-1,-1],"loss_changes":[1.2444385E4,2.834086E3,4.280787E3,4.2745215E2,4.0280005E2,7.514458E2,8.9200195E2,7.071094E1,6.506494E1,4.783789E1,6.438092E1,7.741945E1,8.9528076E1,1.073855E2,1.7378076E2,1.8822021E0,1.7487793E1,1.162207E1,1.419458E1,1.6423218E1,1.675586E1,2.2306335E1,1.8025726E1,7.9217796E0,3.1319992E1,2.5216888E1,3.3701843E1,3.0651733E1,1.5029663E1,2.3448242E1,3.339502E1,1.0767822E0,9.5703125E-1,5.7246094E0,6.1973877E0,4.395996E0,3.2891235E0,3.3735352E0,4.8216553E0,4.1575317E0,4.99646E0,2.6347656E0,4.007019E0,4.266876E0,5.6159973E0,3.900299E0,4.951027E0,3.8565292E0,3.6026068E0,9.3307865E-1,8.691307E0,4.620804E0,7.4712524E0,6.3799133E0,5.8372803E0,6.6433716E0,5.675049E0,7.7266846E0,5.352173E0,6.437134E0,4.858032E0,2.958374E0,7.484253E0,0E0,0E0,0E0,0E0,0E0,0E0,0E0,0E0,0E0,0E0,0E0,0E0,0E0,0E0,0E0,0E0,0E0,0E0,0E0,0E0,0E0,0E0,0E0,0E0,0E0,0E0,0E0,0E0,0E0,0E0,0E0,0E0,0E0,0E0,0E0,0E0,0E0,0E0,0E0,0E0,0E0,0E0,0E0,0E0,0E0,0E0,0E0,0E0,0E0,0E0,0E0,0E0,0E0,0E0,0E0,0E0,0E0,0E0,0E0,0E0,0E0,0E0,0E0,0E0],"parents":[2147483647,0,0,1,1,2,2,3,3,4,4,5,5,6,6,7,7,8,8,9,9,10,10,11,11,12,12,13,13,14,14,15,15,16,16,17,17,18,18,19,19,20,20,21,21,22,22,23,23,24,24,25,25,26,26,27,27,28,28,29,29,30,30,31,31,32,32,33,33,34,34,35,35,36,36,37,37,38,38,39,39,40,40,41,41,42,42,43,43,44,44,45,45,46,46,47,47,48,48,49,49,50,50,51,51,52,52,53,53,54,54,55,55,56,56,57,57,58,58,59,59,60,60,61,61,62,62],"right_children":[2,4,6,8,10,12,14,16,18,20,22,24,26,28,30,32,34,36,38,40,42,44,46,48,50,52,54,56,58,60,62,64,66,68,70,72,74,76,78,80,82,84,86,88,90,92,94,96,98,100,102,104,106,108,110,112,114,116,118,120,122,124,126,-1,-1,-1,-1,-1,-1,-1,-1,-1,-1,-1,-1,-1,-1,-1,-1,-1,-1,-1,-1,-1,-1,-1,-1,-1,-1,-1,-1,-1,-1,-1,-1,-1,-1,-1,-1,-1,-1,-1,-1,-1,-1,-1,-1,-1,-1,-1,-1,-1,-1,-1,-1,-1,-1,-1,-1,-1,-1,-1,-1,-1,-1,-1,-1],"split_conditions":[-6.680661E-2,-3.598731E-1,2.1331054E-1,-5.8684886E-1,-2.0666666E-1,5.9984077E-2,4.2327377E-1,-8.073387E-1,-4.6409902E-1,-2.729635E-1,-1.3333334E-1,-1.326518E-2,1.3352947E-1,3.0984083E-1,6.136564E-1,-8.089399E-1,-6.8659824E-1,1.9776142E0,-1.1920954E0,-4.6207793E-2,3.1857833E-2,-2.51599E-1,-9.4824713E-1,-1.5522976E0,1.338939E-2,2.4747378E-1,7.3582065E-1,7.9807657E-1,2.1443417E0,5.16649E-1,7.3671174E-1,5.12012E0,-1.4443005E0,1.562258E-17,1.90394E0,-5.177671E-1,-5.398031E-1,-4.063908E-1,-4.1988495E-1,-3.1344363E-1,-3.135354E-1,-4.059552E0,-2.2988525E-1,-1.7252614E-1,-1.6387498E-1,-9.335573E-2,-8.115817E-2,-3.9875716E-2,-4.669028E-2,6.6711545E-1,1.132989E0,9.6664675E-2,1.066925E-1,-6.078972E0,1.7337734E-1,2.597812E-1,2.5348943E-1,3.730346E-1,3.604654E-1,-1.9180259E-1,1.1923425E0,2.8358774E0,1E0,-4.6542358E-2,-4.224762E-2,-4.364164E-2,-3.877474E-2,2.2566364E-4,-3.5890337E-2,-3.241313E-2,-2.8550375E-2,-2.823774E-2,-2.527353E-2,-2.5248414E-2,-2.1978999E-2,-2.3078041E-2,-2.035991E-2,-1.9924745E-2,-1.7204618E-2,-1.7721374E-2,-1.5365769E-2,-1.4479187E-2,-1.2067993E-2,-1.3592853E-2,-1.1872688E-2,-1.0586385E-2,-8.581603E-3,-1.0239535E-2,-8.476367E-3,-7.356792E-3,-5.4556276E-3,-6.655255E-3,-4.9620843E-3,-4.1968804E-3,-2.5037348E-3,-3.545541E-3,-1.865208E-3,-1.7615113E-3,-4.4445498E-4,1.2056504E-4,5.594868E-4,1.532344E-3,3.1939957E-3,3.0069423E-3,4.511181E-3,5.5152862E-3,7.4230656E-3,5.397236E-3,7.4805594E-3,9.128261E-3,1.0970448E-2,9.690333E-3,1.1921372E-2,1.2976824E-2,1.5057841E-2,1.5030855E-2,1.8027619E-2,1.7900005E-2,2.0685518E-2,2.1328643E-2,2.4306979E-2,2.5988614E-2,2.9402724E-2,3.1460136E-2,3.4939043E-2,4.00934E-2,4.9803212E-2],"split_indices":[6,6,6,6,6,6,6,6,6,6,6,6,6,6,6,8,6,4,4,4,4,4,4,4,6,4,4,4,4,6,6,4,4,0,4,6,6,6,6,6,8,4,8,6,8,6,8,6,8,4,4,6,6,4,6,6,6,6,6,4,4,4,6,0,0,0,0,0,0,0,0,0,0,0,0,0,0,0,0,0,0,0,0,0,0,0,0,0,0,0,0,0,0,0,0,0,0,0,0,0,0,0,0,0,0,0,0,0,0,0,0,0,0,0,0,0,0,0,0,0,0,0,0,0,0,0,0],"split_type":[0,0,0,0,0,0,0,0,0,0,0,0,0,0,0,0,0,0,0,0,0,0,0,0,0,0,0,0,0,0,0,0,0,0,0,0,0,0,0,0,0,0,0,0,0,0,0,0,0,0,0,0,0,0,0,0,0,0,0,0,0,0,0,0,0,0,0,0,0,0,0,0,0,0,0,0,0,0,0,0,0,0,0,0,0,0,0,0,0,0,0,0,0,0,0,0,0,0,0,0,0,0,0,0,0,0,0,0,0,0,0,0,0,0,0,0,0,0,0,0,0,0,0,0,0,0,0],"sum_hessian":[3.84621E5,1.28835E5,2.55786E5,3.029E4,9.8545E4,1.95554E5,6.0232E4,9.337E3,2.0953E4,3.5883E4,6.2662E4,1.16105E5,7.9449E4,4.3489E4,1.6743E4,1.846E3,7.491E3,8.987E3,1.1966E4,1.6469E4,1.9414E4,2.9815E4,3.2847E4,3.4487E4,8.1618E4,4.3453E4,3.5996E4,2.6956E4,1.6533E4,1.201E4,4.733E3,1.157E3,6.89E2,2.993E3,4.498E3,5.33E3,3.657E3,4.823E3,7.143E3,7.755E3,8.714E3,9.246E3,1.0168E4,1.3979E4,1.5836E4,1.4076E4,1.8771E4,1.3679E4,2.0808E4,5.0013E4,3.1605E4,2.0451E4,2.3002E4,1.8563E4,1.7433E4,1.3667E4,1.3289E4,9.401E3,7.132E3,7.542E3,4.468E3,3.003E3,1.73E3,7.75E2,3.82E2,3.42E2,3.47E2,1.1E1,2.982E3,2.572E3,1.926E3,2.72E3,2.61E3,1.237E3,2.42E3,2.469E3,2.354E3,2.676E3,4.467E3,3.51E3,4.245E3,4.312E3,4.402E3,4.079E3,5.167E3,5.605E3,4.563E3,6.277E3,7.702E3,8.919E3,6.917E3,8.259E3,5.817E3,1.2025E4,6.746E3,6.635E3,7.044E3,1.0851E4,9.957E3,2.9451E4,2.0562E4,1.6782E4,1.4823E4,1.0412E4,1.0039E4,1.5243E4,7.759E3,5.07E3,1.3493E4,9.431E3,8.002E3,7.722E3,5.945E3,6.524E3,6.765E3,5.968E3,3.433E3,3.854E3,3.278E3,3.464E3,4.078E3,2.451E3,2.017E3,1.895E3,1.108E3,1.477E3,2.53E2],"tree_param":{"num_deleted":"0","num_feature":"9","num_nodes":"127","size_leaf_vector":"1"}},{"base_weights":[-1.6407225E-4,-2.467075E-1,1.1812638E-1,-5.02625E-1,-1.6979611E-1,5.0741397E-2,3.4237263E-1,-6.634317E-1,-4.2650348E-1,-2.4641824E-1,-1.2067055E-1,2.1611513E-3,1.2444278E-1,2.7541408E-1,5.408937E-1,-8.32681E-1,-6.227547E-1,-4.8114654E-1,-3.7964827E-1,-2.8809386E-1,-2.1350633E-1,-1.5186743E-1,-9.388268E-2,-3.622842E-2,2.0544285E-2,9.410598E-2,1.583624E-1,2.3432527E-1,3.3729014E-1,4.7739103E-1,6.810045E-1,-8.617122E-1,-7.953824E-1,-6.8052495E-1,-5.842397E-1,-5.135973E-1,-4.4455478E-1,-4.0602863E-1,-3.3972302E-1,-3.2462314E-1,-2.6171693E-1,-2.3686169E-1,-1.7979558E-1,-1.792294E-1,-1.2773639E-1,-1.1705279E-1,-7.1082704E-2,-5.2194092E-2,-2.2452753E-2,5.751703E-3,4.3973636E-2,7.432975E-2,1.2018979E-1,1.304942E-1,1.8766786E-1,2.0524465E-1,2.6876855E-1,3.1164932E-1,3.7348187E-1,4.4319004E-1,5.2319777E-1,6.232655E-1,7.847222E-1,1.2141303E-3,-4.313145E-2,-3.6785297E-2,-4.0721893E-2,-3.591405E-2,-3.173548E-2,-3.0825812E-2,-2.7183903E-2,-2.7062207E-2,-2.4268037E-2,-2.3648882E-2,-2.0800825E-2,-2.1685418E-2,-1.926357E-2,-1.827024E-2,-1.5988259E-2,-1.7260749E-2,-1.4990157E-2,-1.4343919E-2,-1.2022937E-2,-1.2969948E-2,-1.11041395E-2,-6.5119253E-3,-9.309845E-3,-9.753107E-3,-8.183321E-3,-7.052645E-3,-5.1670917E-3,-6.602517E-3,-5.03898E-3,-2.4077916E-3,-4.0378254E-3,-3.4237045E-3,-1.667783E-3,-1.6988751E-3,-4.4148002E-4,2.1068021E-4,8.6011173E-4,1.4296301E-3,3.0124204E-3,3.0915625E-3,4.523608E-3,5.1769638E-3,6.8790526E-3,5.7247174E-3,7.5267525E-3,8.561937E-3,1.044207E-2,9.422534E-3,1.1618669E-2,1.2716261E-2,1.4837392E-2,1.4217071E-2,1.7149603E-2,1.7181719E-2,2.004194E-2,2.0628843E-2,2.3462094E-2,2.4323082E-2,2.755097E-2,2.9863572E-2,3.2972973E-2,3.7987024E-2,4.732741E-2],"categories":[],"categories_nodes":[],"categories_segments":[],"categories_sizes":[],"default_left":[0,0,1,0,0,1,0,0,0,0,0,0,0,0,0,0,0,0,0,0,0,0,0,0,1,0,0,0,0,0,0,0,0,0,0,0,0,0,0,0,0,0,0,0,0,0,0,0,0,1,0,0,0,0,0,0,0,0,0,0,0,0,0,0,0,0,0,0,0,0,0,0,0,0,0,0,0,0,0,0,0,0,0,0,0,0,0,0,0,0,0,0,0,0,0,0,0,0,0,0,0,0,0,0,0,0,0,0,0,0,0,0,0,0,0,0,0,0,0,0,0,0,0,0,0,0,0],"id":1,"left_children":[1,3,5,7,9,11,13,15,17,19,21,23,25,27,29,31,33,35,37,39,41,43,45,47,49,51,53,55,57,59,61,63,65,67,69,71,73,75,77,79,81,83,85,87,89,91,93,95,97,99,101,103,105,107,109,111,113,115,117,119,121,123,125,-1,-1,-1,-1,-1,-1,-1,-1,-1,-1,-1,-1,-1,-1,-1,-1,-1,-1,-1,-1,-1,-1,-1,-1,-1,-1,-1,-1,-1,-1,-1,-1,-1,-1,-1,-1,-1,-1,-1,-1,-1,-1,-1,-1,-1,-1,-1,-1,-1,-1,-1,-1,-1,-1,-1,-1,-1,-1,-1,-1,-1,-1,-1,-1],"loss_changes":[1.1206455E4,2.4521968E3,3.9238267E3,3.5213135E2,3.6057153E2,7.149117E2,7.974121E2,6.3150146E1,4.9853516E1,5.1271484E1,4.8770386E1,8.49321E1,8.161255E1,1.1399658E2,1.3431055E2,1.251709E0,1.6200928E1,1.047998E1,1.0948486E1,1.5823853E1,1.6424377E1,1.7782715E1,1.65849E1,8.569584E0,2.8204128E1,2.1592896E1,3.0560608E1,2.6955933E1,1.6497192E1,1.6086182E1,2.7759033E1,8.282471E-1,3.0603027E-1,4.6954346E0,5.5338135E0,3.463379E0,3.2473145E0,3.4715576E0,2.0327759E0,3.4327393E0,5.062195E0,4.0566406E0,2.692505E0,3.081421E0,4.6414948E0,3.788391E0,3.5079346E0,5.533161E0,3.2843676E0,8.785045E-1,7.8821907E0,4.8004303E0,5.2145996E0,6.138916E0,6.3134155E0,6.619812E0,4.9121094E0,8.876526E0,5.920044E0,4.567749E0,4.2770996E0,2.4615479E0,6.084717E0,0E0,0E0,0E0,0E0,0E0,0E0,0E0,0E0,0E0,0E0,0E0,0E0,0E0,0E0,0E0,0E0,0E0,0E0,0E0,0E0,0E0,0E0,0E0,0E0,0E0,0E0,0E0,0E0,0E0,0E0,0E0,0E0,0E0,0E0,0E0,0E0,0E0,0E0,0E0,0E0,0E0,0E0,0E0,0E0,0E0,0E0,0E0,0E0,0E0,0E0,0E0,0E0,0E0,0E0,0E0,0E0,0E0,0E0,0E0,0E0,0E0,0E0,0E0,0E0],"parents":[2147483647,0,0,1,1,2,2,3,3,4,4,5,5,6,6,7,7,8,8,9,9,10,10,11,11,12,12,13,13,14,14,15,15,16,16,17,17,18,18,19,19,20,20,21,21,22,22,23,23,24,24,25,25,26,26,27,27,28,28,29,29,30,30,31,31,32,32,33,33,34,34,35,35,36,36,37,37,38,38,39,39,40,40,41,41,42,42,43,43,44,44,45,45,46,46,47,47,48,48,49,49,50,50,51,51,52,52,53,53,54,54,55,55,56,56,57,57,58,58,59,59,60,60,61,61,62,62],"right_children":[2,4,6,8,10,12,14,16,18,20,22,24,26,28,30,32,34,36,38,40,42,44,46,48,50,52,54,56,58,60,62,64,66,68,70,72,74,76,78,80,82,84,86,88,90,92,94,96,98,100,102,104,106,108,110,112,114,116,118,120,122,124,126,-1,-1,-1,-1,-1,-1,-1,-1,-1,-1,-1,-1,-1,-1,-1,-1,-1,-1,-1,-1,-1,-1,-1,-1,-1,-1,-1,-1,-1,-1,-1,-1,-1,-1,-1,-1,-1,-1,-1,-1,-1,-1,-1,-1,-1,-1,-1,-1,-1,-1,-1,-1,-1,-1,-1,-1,-1,-1,-1,-1,-1,-1,-1,-1],"split_conditions":[-7.668639E-2,-3.701423E-1,2.1331054E-1,-5.8684886E-1,-2.0666666E-1,5.9984077E-2,4.3923444E-1,-8.073387E-1,-4.6409902E-1,-2.793038E-1,-1.4E-1,-1.326518E-2,1.3259599E-1,3.0984083E-1,6.136564E-1,1.6398728E0,-6.8659824E-1,7.9807657E-1,2.1443417E0,-8.575836E-1,1.6398728E0,-2.51599E-1,-1.3758117E-1,-6.723093E-1,1.338939E-2,1.5733702E0,7.3582065E-1,1.3921533E0,3.730346E-1,5.16649E-1,7.3671174E-1,1.562258E-17,1.5813637E0,1.2517763E0,1.4571002E0,-5.177671E-1,-5.177671E-1,-4.1988495E-1,-4.1988495E-1,-3.1344363E-1,-3.2301077E-1,-3.6110384E0,-1.957443E0,-1.7252614E-1,5.749825E0,-1.0639345E-1,2.085191E1,-3.9875716E-2,-3.9875716E-2,6.6396957E-3,9.1326356E-1,9.989049E-2,9.352001E-2,1.7337734E-1,1.7337734E-1,2.6604742E-1,2.700649E-1,1.513862E0,2.4747378E-1,-1.3758117E-1,-7.958296E-1,1.77531E0,1E0,1.2141303E-3,-4.313145E-2,-3.6785297E-2,-4.0721893E-2,-3.591405E-2,-3.173548E-2,-3.0825812E-2,-2.7183903E-2,-2.7062207E-2,-2.4268037E-2,-2.3648882E-2,-2.0800825E-2,-2.1685418E-2,-1.926357E-2,-1.827024E-2,-1.5988259E-2,-1.7260749E-2,-1.4990157E-2,-1.4343919E-2,-1.2022937E-2,-1.2969948E-2,-1.11041395E-2,-6.5119253E-3,-9.309845E-3,-9.753107E-3,-8.183321E-3,-7.052645E-3,-5.1670917E-3,-6.602517E-3,-5.03898E-3,-2.4077916E-3,-4.0378254E-3,-3.4237045E-3,-1.667783E-3,-1.6988751E-3,-4.4148002E-4,2.1068021E-4,8.6011173E-4,1.4296301E-3,3.0124204E-3,3.0915625E-3,4.523608E-3,5.1769638E-3,6.8790526E-3,5.7247174E-3,7.5267525E-3,8.561937E-3,1.044207E-2,9.422534E-3,1.1618669E-2,1.2716261E-2,1.4837392E-2,1.4217071E-2,1.7149603E-2,1.7181719E-2,2.004194E-2,2.0628843E-2,2.3462094E-2,2.4323082E-2,2.755097E-2,2.9863572E-2,3.2972973E-2,3.7987024E-2,4.732741E-2],"split_indices":[6,6,6,6,6,6,6,6,6,6,6,6,6,6,6,4,6,4,4,4,4,4,4,4,6,4,4,4,6,6,6,0,2,4,4,6,6,6,6,6,6,4,3,6,4,6,0,6,6,6,4,6,6,6,6,6,6,4,4,4,4,4,6,0,0,0,0,0,0,0,0,0,0,0,0,0,0,0,0,0,0,0,0,0,0,0,0,0,0,0,0,0,0,0,0,0,0,0,0,0,0,0,0,0,0,0,0,0,0,0,0,0,0,0,0,0,0,0,0,0,0,0,0,0,0,0,0],"split_type":[0,0,0,0,0,0,0,0,0,0,0,0,0,0,0,0,0,0,0,0,0,0,0,0,0,0,0,0,0,0,0,0,0,0,0,0,0,0,0,0,0,0,0,0,0,0,0,0,0,0,0,0,0,0,0,0,0,0,0,0,0,0,0,0,0,0,0,0,0,0,0,0,0,0,0,0,0,0,0,0,0,0,0,0,0,0,0,0,0,0,0,0,0,0,0,0,0,0,0,0,0,0,0,0,0,0,0,0,0,0,0,0,0,0,0,0,0,0,0,0,0,0,0,0,0,0,0],"sum_hessian":[3.84258E5,1.24588E5,2.5967E5,2.8789E4,9.5799E4,1.99671E5,5.9999E4,9.247E3,1.9542E4,3.7424E4,5.8375E4,1.20346E5,7.9325E4,4.4868E4,1.5131E4,1.788E3,7.459E3,9.017E3,1.0525E4,1.651E4,2.0914E4,2.6966E4,3.1409E4,3.8968E4,8.1378E4,4.1876E4,3.7449E4,2.6966E4,1.7902E4,1.0415E4,4.716E3,9.93E2,7.95E2,2.977E3,4.482E3,4.772E3,4.245E3,6.332E3,4.193E3,6.918E3,9.592E3,1.2351E4,8.563E3,1.2634E4,1.4332E4,1.5576E4,1.5833E4,1.8048E4,2.092E4,4.9884E4,3.1494E4,2.382E4,1.8056E4,1.9198E4,1.8251E4,1.4625E4,1.2341E4,1.0484E4,7.418E3,5.969E3,4.446E3,3.034E3,1.682E3,1E0,9.92E2,2.02E2,5.93E2,1.624E3,1.353E3,2.488E3,1.994E3,2.402E3,2.37E3,2.119E3,2.126E3,2.705E3,3.627E3,1.826E3,2.367E3,3.774E3,3.144E3,4.387E3,5.205E3,4.885E3,7.466E3,9.82E2,7.581E3,6.257E3,6.377E3,9.268E3,5.064E3,8.102E3,7.474E3,4.7E3,1.1133E4,9.68E3,8.368E3,1.1332E4,9.588E3,4.3978E4,5.906E3,1.6193E4,1.5301E4,1.3428E4,1.0392E4,9.228E3,8.828E3,1.0679E4,8.519E3,1.0282E4,7.969E3,9.038E3,5.587E3,8.146E3,4.195E3,5.608E3,4.876E3,3.554E3,3.864E3,2.752E3,3.217E3,1.924E3,2.522E3,1.776E3,1.258E3,1.462E3,2.2E2],"tree_param":{"num_deleted":"0","num_feature":"9","num_nodes":"127","size_leaf_vector":"1"}},{"base_weights":[-2.3998367E-4,-2.3279198E-1,1.1343052E-1,-4.7799554E-1,-1.5990832E-1,4.9077872E-2,3.254542E-1,-6.499184E-1,-4.1343325E-1,-2.339948E-1,-1.1357422E-1,5.8666524E-4,1.1527799E-1,2.615191E-1,5.1495284E-1,-7.898781E-1,-6.0738647E-1,-4.7513604E-1,-3.674738E-1,-2.7377173E-1,-2.026496E-1,-1.4447407E-1,-8.815631E-2,-3.3763856E-2,1.7325526E-2,8.9820914E-2,1.5463589E-1,2.2245319E-1,3.20367E-1,4.680672E-1,6.870212E-1,-8.171991E-1,-7.411116E-1,-6.4813066E-1,-5.727848E-1,-5.1060313E-1,-4.4481328E-1,-4.0068138E-1,-3.3674082E-1,-3.0729204E-1,-2.4795942E-1,-2.2514719E-1,-1.6999711E-1,-1.6634478E-1,-1.17693715E-1,-1.1589835E-1,-7.078536E-2,-4.711902E-2,-1.920171E-2,4.965915E-3,3.8383078E-2,7.234436E-2,1.1727674E-1,1.327533E-1,1.888886E-1,1.9177377E-1,2.5244698E-1,2.957918E-1,3.5490417E-1,4.3058386E-1,5.3028697E-1,6.1936116E-1,7.4702144E-1,-4.210697E-2,-3.81246E-2,-3.935967E-2,-3.4757636E-2,-3.4295164E-2,-3.0420545E-2,2.0246357E-3,-2.8742915E-2,-2.6944881E-2,-2.4074566E-2,-2.3702526E-2,-2.0739658E-2,-2.1716338E-2,-1.901684E-2,-1.8169945E-2,-1.5541959E-2,-1.6788438E-2,-1.45471245E-2,-1.3502704E-2,-1.1227126E-2,-1.2334602E-2,-1.0567997E-2,-9.470874E-3,-7.281411E-3,-9.162925E-3,-7.5809895E-3,-6.7335153E-3,-4.7548776E-3,-6.5042893E-3,-4.93372E-3,-4.1963807E-3,-2.6377335E-3,-3.1140957E-3,-1.5378657E-3,-1.6544858E-3,-2.6503552E-4,9.39841E-5,4.821384E-4,1.3514365E-3,2.7825164E-3,2.908568E-3,4.496395E-3,4.8902007E-3,6.8697096E-3,5.3428165E-3,7.2590085E-3,8.6700125E-3,1.0206467E-2,8.773308E-3,1.0930567E-2,1.1663574E-2,1.3552996E-2,1.3177231E-2,1.6034476E-2,1.6299974E-2,1.9020293E-2,2.0322992E-2,2.3003615E-2,2.4709998E-2,2.775245E-2,2.943859E-2,3.2350652E-2,3.6066774E-2,4.49459E-2],"categories":[],"categories_nodes":[],"categories_segments":[],"categories_sizes":[],"default_left":[0,0,1,0,0,1,0,0,0,0,0,0,0,0,0,1,0,0,0,0,0,0,0,0,1,0,0,0,0,0,0,0,0,0,0,0,0,0,1,0,0,0,0,0,0,0,0,0,0,0,0,0,0,0,0,0,0,0,0,0,0,0,0,0,0,0,0,0,0,0,0,0,0,0,0,0,0,0,0,0,0,0,0,0,0,0,0,0,0,0,0,0,0,0,0,0,0,0,0,0,0,0,0,0,0,0,0,0,0,0,0,0,0,0,0,0,0,0,0,0,0,0,0,0,0,0,0],"id":2,"left_children":[1,3,5,7,9,11,13,15,17,19,21,23,25,27,29,31,33,35,37,39,41,43,45,47,49,51,53,55,57,59,61,63,65,67,69,71,73,75,77,79,81,83,85,87,89,91,93,95,97,99,101,103,105,107,109,111,113,115,117,119,121,123,125,-1,-1,-1,-1,-1,-1,-1,-1,-1,-1,-1,-1,-1,-1,-1,-1,-1,-1,-1,-1,-1,-1,-1,-1,-1,-1,-1,-1,-1,-1,-1,-1,-1,-1,-1,-1,-1,-1,-1,-1,-1,-1,-1,-1,-1,-1,-1,-1,-1,-1,-1,-1,-1,-1,-1,-1,-1,-1,-1,-1,-1,-1,-1,-1],"loss_changes":[1.0160315E4,2.2551426E3,3.5225159E3,3.2066943E2,3.33906E2,6.357875E2,7.281709E2,4.649951E1,5.9442627E1,4.6611572E1,4.6994873E1,6.573328E1,8.388623E1,1.032666E2,1.2201416E2,1.8404541E0,8.167969E0,9.420898E0,1.2166016E1,1.4194214E1,1.5342041E1,1.5800842E1,1.5818085E1,7.283531E0,2.0004936E1,2.439151E1,2.4625793E1,2.4814209E1,1.511499E1,2.7571533E1,1.27109375E1,9.501343E-1,8.717346E-1,3.7445068E0,4.1992188E0,3.1408691E0,4.0549316E0,3.796753E0,4.213623E0,3.2409668E0,4.7630005E0,3.6291504E0,4.0163574E0,3.674652E0,4.646469E0,3.0768738E0,4.781761E0,4.8450356E0,3.4594088E0,6.991148E-1,5.572239E0,7.739029E0,7.7340393E0,6.443695E0,2.990326E0,5.8091736E0,4.8117676E0,8.332031E0,5.3674927E0,5.1085205E0,3.7263184E0,9.140625E-1,6.0427856E0,0E0,0E0,0E0,0E0,0E0,0E0,0E0,0E0,0E0,0E0,0E0,0E0,0E0,0E0,0E0,0E0,0E0,0E0,0E0,0E0,0E0,0E0,0E0,0E0,0E0,0E0,0E0,0E0,0E0,0E0,0E0,0E0,0E0,0E0,0E0,0E0,0E0,0E0,0E0,0E0,0E0,0E0,0E0,0E0,0E0,0E0,0E0,0E0,0E0,0E0,0E0,0E0,0E0,0E0,0E0,0E0,0E0,0E0,0E0,0E0,0E0,0E0,0E0,0E0],"parents":[2147483647,0,0,1,1,2,2,3,3,4,4,5,5,6,6,7,7,8,8,9,9,10,10,11,11,12,12,13,13,14,14,15,15,16,16,17,17,18,18,19,19,20,20,21,21,22,22,23,23,24,24,25,25,26,26,27,27,28,28,29,29,30,30,31,31,32,32,33,33,34,34,35,35,36,36,37,37,38,38,39,39,40,40,41,41,42,42,43,43,44,44,45,45,46,46,47,47,48,48,49,49,50,50,51,51,52,52,53,53,54,54,55,55,56,56,57,57,58,58,59,59,60,60,61,61,62,62],"right_children":[2,4,6,8,10,12,14,16,18,20,22,24,26,28,30,32,34,36,38,40,42,44,46,48,50,52,54,56,58,60,62,64,66,68,70,72,74,76,78,80,82,84,86,88,90,92,94,96,98,100,102,104,106,108,110,112,114,116,118,120,122,124,126,-1,-1,-1,-1,-1,-1,-1,-1,-1,-1,-1,-1,-1,-1,-1,-1,-1,-1,-1,-1,-1,-1,-1,-1,-1,-1,-1,-1,-1,-1,-1,-1,-1,-1,-1,-1,-1,-1,-1,-1,-1,-1,-1,-1,-1,-1,-1,-1,-1,-1,-1,-1,-1,-1,-1,-1,-1,-1,-1,-1,-1,-1,-1,-1],"split_conditions":[-7.3359035E-2,-3.701423E-1,2.1331054E-1,-6.1580724E-1,-2.0666666E-1,5.322355E-2,4.3923444E-1,-8.073387E-1,-4.8256737E-1,-2.793038E-1,-1.4E-1,-1.326518E-2,1.3999473E-1,3.0984083E-1,6.634072E-1,-8.089399E-1,-4.6207793E-2,-7.341382E-2,4.0599547E-4,-5.8948356E-1,1.6398728E0,7.3582065E-1,-1.5522976E0,-4.6207793E-2,1.3213629E-2,2.2923656E0,2.2923656E0,6.397639E-1,3.730346E-1,5.433935E-1,7.3671174E-1,5.242229E0,-1.3138956E0,-6.8659824E-1,4.6264286E0,-5.398031E-1,-5.398031E-1,-4.3338048E-1,-4.3339172E-1,-3.307492E-1,-3.135354E-1,-3.6986325E0,-2.3983334E-1,-3.3579073E0,-1.7273016E-1,-1.0326956E-1,-9.9985875E-2,-3.9875716E-2,-6.631286E-2,8.5980004E-1,2.1443417E0,9.989049E-2,9.352001E-2,-4.43926E0,1.7337734E-1,2.6604742E-1,2.5348943E-1,-1.9180259E-1,7.2525196E-2,1.5733702E0,-1.0692074E0,-4.6207793E-2,1E0,-4.210697E-2,-3.81246E-2,-3.935967E-2,-3.4757636E-2,-3.4295164E-2,-3.0420545E-2,2.0246357E-3,-2.8742915E-2,-2.6944881E-2,-2.4074566E-2,-2.3702526E-2,-2.0739658E-2,-2.1716338E-2,-1.901684E-2,-1.8169945E-2,-1.5541959E-2,-1.6788438E-2,-1.45471245E-2,-1.3502704E-2,-1.1227126E-2,-1.2334602E-2,-1.0567997E-2,-9.470874E-3,-7.281411E-3,-9.162925E-3,-7.5809895E-3,-6.7335153E-3,-4.7548776E-3,-6.5042893E-3,-4.93372E-3,-4.1963807E-3,-2.6377335E-3,-3.1140957E-3,-1.5378657E-3,-1.6544858E-3,-2.6503552E-4,9.39841E-5,4.821384E-4,1.3514365E-3,2.7825164E-3,2.908568E-3,4.496395E-3,4.8902007E-3,6.8697096E-3,5.3428165E-3,7.2590085E-3,8.6700125E-3,1.0206467E-2,8.773308E-3,1.0930567E-2,1.1663574E-2,1.3552996E-2,1.3177231E-2,1.6034476E-2,1.6299974E-2,1.9020293E-2,2.0322992E-2,2.3003615E-2,2.4709998E-2,2.775245E-2,2.943859E-2,3.2350652E-2,3.6066774E-2,4.49459E-2],"split_indices":[6,6,6,6,6,6,6,6,6,6,6,6,6,6,6,8,4,4,4,4,4,4,4,4,6,4,4,4,6,6,6,4,4,6,0,6,6,6,8,6,8,4,8,4,8,6,8,6,8,4,4,6,6,4,6,6,6,4,4,4,4,4,6,0,0,0,0,0,0,0,0,0,0,0,0,0,0,0,0,0,0,0,0,0,0,0,0,0,0,0,0,0,0,0,0,0,0,0,0,0,0,0,0,0,0,0,0,0,0,0,0,0,0,0,0,0,0,0,0,0,0,0,0,0,0,0,0],"split_type":[0,0,0,0,0,0,0,0,0,0,0,0,0,0,0,0,0,0,0,0,0,0,0,0,0,0,0,0,0,0,0,0,0,0,0,0,0,0,0,0,0,0,0,0,0,0,0,0,0,0,0,0,0,0,0,0,0,0,0,0,0,0,0,0,0,0,0,0,0,0,0,0,0,0,0,0,0,0,0,0,0,0,0,0,0,0,0,0,0,0,0,0,0,0,0,0,0,0,0,0,0,0,0,0,0,0,0,0,0,0,0,0,0,0,0,0,0,0,0,0,0,0,0,0,0,0,0],"sum_hessian":[3.84359E5,1.26191E5,2.58168E5,2.8913E4,9.7278E4,1.98056E5,6.0112E4,7.891E3,2.1022E4,3.7428E4,5.985E4,1.14319E5,8.3737E4,4.4949E4,1.5163E4,1.835E3,6.056E3,8.97E3,1.2052E4,1.6492E4,2.0936E4,2.701E4,3.284E4,3.7455E4,7.6864E4,5.085E4,3.2887E4,2.7018E4,1.7931E4,1.1919E4,3.244E3,1.166E3,6.69E2,2.773E3,3.283E3,4.127E3,4.843E3,5.787E3,6.265E3,7.17E3,9.322E3,1.2392E4,8.544E3,1.4865E4,1.2145E4,1.2643E4,2.0197E4,1.9536E4,1.7919E4,4.8436E4,2.8428E4,3.1074E4,1.9776E4,2.007E4,1.2817E4,1.336E4,1.3658E4,1.0482E4,7.449E3,7.443E3,4.476E3,1.53E3,1.714E3,7.91E2,3.75E2,3.26E2,3.43E2,1.413E3,1.36E3,1.1E1,3.272E3,2.084E3,2.043E3,2.446E3,2.397E3,2.173E3,3.614E3,3.081E3,3.184E3,2.608E3,4.562E3,4.791E3,4.531E3,4.829E3,7.563E3,4.751E3,3.793E3,6.913E3,7.952E3,6.932E3,5.213E3,6.929E3,5.714E3,1.168E4,8.517E3,1.0138E4,9.398E3,8.963E3,8.956E3,2.9181E4,1.9255E4,1.7152E4,1.1276E4,1.7208E4,1.3866E4,1.0052E4,9.724E3,6.511E3,1.3559E4,6.363E3,6.454E3,8.315E3,5.045E3,6.734E3,6.924E3,4.572E3,5.91E3,3.498E3,3.951E3,4.102E3,3.341E3,1.83E3,2.646E3,7.37E2,7.93E2,1.471E3,2.43E2],"tree_param":{"num_deleted":"0","num_feature":"9","num_nodes":"127","size_leaf_vector":"1"}},{"base_weights":[-1.7053359E-5,-2.1582927E-1,1.08318955E-1,-4.4588697E-1,-1.4585239E-1,5.324647E-2,3.3025515E-1,-5.9788847E-1,-3.788497E-1,-2.1647502E-1,-1.0287737E-1,6.2615126E-3,1.1989058E-1,2.6776645E-1,5.013044E-1,-7.0055306E-1,-5.434147E-1,-4.3306863E-1,-3.3798888E-1,-2.5446132E-1,-1.8351541E-1,-1.2939559E-1,-6.296398E-2,-9.66834E-3,3.9633885E-2,8.4911935E-2,1.5324466E-1,2.2699E-1,3.197418E-1,4.406673E-1,6.187509E-1,-7.542258E-1,-6.3911283E-1,-5.7708126E-1,-4.8738128E-1,-4.7152874E-1,-3.9079535E-1,-3.6861104E-1,-2.8395584E-1,-2.9639676E-1,-2.2694416E-1,-2.243965E-1,-1.6057822E-1,-1.5968649E-1,-1.0463498E-1,-9.0120204E-2,-3.4593724E-2,-2.9283341E-2,6.179488E-3,1.08217895E-2,6.509674E-2,5.5685375E-2,1.1705268E-1,1.2590285E-1,1.9369216E-1,1.7750655E-1,2.580925E-1,2.7533978E-1,3.4909135E-1,3.8947177E-1,4.6645728E-1,5.676584E-1,7.1199507E-1,-3.8796756E-2,-3.3228114E-2,-3.411844E-2,-2.9833427E-2,-3.070259E-2,-2.7593879E-2,-2.5553703E-2,-2.2009796E-2,-2.4834765E-2,-2.2041949E-2,-2.0210357E-2,-1.5730215E-2,-2.013585E-2,-1.73237E-2,-1.4747587E-2,-9.737002E-3,-1.6109912E-2,-1.3510266E-2,-1.286704E-2,-1.02354E-2,-1.1773084E-2,-7.1707377E-3,-8.74595E-3,-5.066648E-3,-9.194614E-3,-6.626654E-3,-6.5157623E-3,-3.9202864E-3,-5.0106323E-3,-1.3344152E-3,-2.5347674E-3,-3.7769362E-4,-2.7878855E-3,-2.2249878E-4,-1.849662E-2,3.4203913E-4,-5.239133E-4,1.3746166E-3,2.2232905E-3,4.433134E-3,1.4048762E-3,3.8747608E-3,3.233344E-3,6.7213797E-3,4.7788923E-3,7.4947565E-3,7.898562E-3,1.0697023E-2,6.212915E-3,9.6586E-3,1.1906799E-2,1.4325623E-2,1.1115331E-2,1.4658019E-2,1.6166275E-2,1.901769E-2,1.6395874E-2,2.0372145E-2,2.1707121E-2,2.4925932E-2,2.4877181E-2,2.9501328E-2,3.4422513E-2,4.2365216E-2],"categories":[],"categories_nodes":[],"categories_segments":[],"categories_sizes":[],"default_left":[0,0,1,0,0,1,0,0,0,0,0,1,0,0,0,0,0,0,0,0,0,0,0,0,0,0,0,0,0,0,0,0,0,0,0,0,0,0,0,0,0,0,0,0,0,0,0,1,0,0,0,0,0,0,0,0,0,0,0,0,0,0,0,0,0,0,0,0,0,0,0,0,0,0,0,0,0,0,0,0,0,0,0,0,0,0,0,0,0,0,0,0,0,0,0,0,0,0,0,0,0,0,0,0,0,0,0,0,0,0,0,0,0,0,0,0,0,0,0,0,0,0,0,0,0,0,0],"id":3,"left_children":[1,3,5,7,9,11,13,15,17,19,21,23,25,27,29,31,33,35,37,39,41,43,45,47,49,51,53,55,57,59,61,63,65,67,69,71,73,75,77,79,81,83,85,87,89,91,93,95,97,99,101,103,105,107,109,111,113,115,117,119,121,123,125,-1,-1,-1,-1,-1,-1,-1,-1,-1,-1,-1,-1,-1,-1,-1,-1,-1,-1,-1,-1,-1,-1,-1,-1,-1,-1,-1,-1,-1,-1,-1,-1,-1,-1,-1,-1,-1,-1,-1,-1,-1,-1,-1,-1,-1,-1,-1,-1,-1,-1,-1,-1,-1,-1,-1,-1,-1,-1,-1,-1,-1,-1,-1,-1],"loss_changes":[8.981892E3,2.0669292E3,3.1261638E3,3.0490625E2,2.987776E2,6.4166547E2,5.433838E2,5.0863525E1,4.5896973E1,4.6583374E1,6.477637E1,6.3894897E1,9.884436E1,7.886548E1,9.66167E1,9.981567E0,1.1020386E1,1.4331177E1,1.9512451E1,1.9895996E1,1.866632E1,2.7564575E1,1.8822327E1,2.5290113E1,2.8489407E1,3.8847473E1,4.79422E1,3.208203E1,2.1239502E1,1.1669556E1,2.1653564E1,2.7700806E0,2.321167E0,3.1433105E0,2.2960205E0,3.3879395E0,4.2249146E0,5.571167E0,4.1539917E0,4.5426636E0,7.010498E0,6.387512E0,1.0840454E1,1.084552E1,1.3620895E1,7.989357E0,5.2033443E0,2.3902575E1,1.1194958E1,6.4699097E0,1.0018806E1,1.3033356E1,1.792038E1,1.8816528E1,1.261792E1,6.6993256E0,7.2005005E0,6.0967712E0,7.8137207E0,3.1994019E0,5.9626465E0,4.4051514E0,4.6254883E0,0E0,0E0,0E0,0E0,0E0,0E0,0E0,0E0,0E0,0E0,0E0,0E0,0E0,0E0,0E0,0E0,0E0,0E0,0E0,0E0,0E0,0E0,0E0,0E0,0E0,0E0,0E0,0E0,0E0,0E0,0E0,0E0,0E0,0E0,0E0,0E0,0E0,0E0,0E0,0E0,0E0,0E0,0E0,0E0,0E0,0E0,0E0,0E0,0E0,0E0,0E0,0E0,0E0,0E0,0E0,0E0,0E0,0E0,0E0,0E0,0E0,0E0,0E0,0E0],"parents":[2147483647,0,0,1,1,2,2,3,3,4,4,5,5,6,6,7,7,8,8,9,9,10,10,11,11,12,12,13,13,14,14,15,15,16,16,17,17,18,18,19,19,20,20,21,21,22,22,23,23,24,24,25,25,26,26,27,27,28,28,29,29,30,30,31,31,32,32,33,33,34,34,35,35,36,36,37,37,38,38,39,39,40,40,41,41,42,42,43,43,44,44,45,45,46,46,47,47,48,48,49,49,50,50,51,51,52,52,53,53,54,54,55,55,56,56,57,57,58,58,59,59,60,60,61,61,62,62],"right_children":[2,4,6,8,10,12,14,16,18,20,22,24,26,28,30,32,34,36,38,40,42,44,46,48,50,52,54,56,58,60,62,64,66,68,70,72,74,76,78,80,82,84,86,88,90,92,94,96,98,100,102,104,106,108,110,112,114,116,118,120,122,124,126,-1,-1,-1,-1,-1,-1,-1,-1,-1,-1,-1,-1,-1,-1,-1,-1,-1,-1,-1,-1,-1,-1,-1,-1,-1,-1,-1,-1,-1,-1,-1,-1,-1,-1,-1,-1,-1,-1,-1,-1,-1,-1,-1,-1,-1,-1,-1,-1,-1,-1,-1,-1,-1,-1,-1,-1,-1,-1,-1,-1,-1,-1,-1,-1],"split_conditions":[-6.727558E-2,-3.5214448E-1,2.2597037E-1,-5.805558E-1,-1.9586706E-1,6.773347E-2,4.458378E-1,-7.241891E-1,-4.5786273E-1,2.4747378E-1,1.7116337E0,1.1011498E-2,4.0599547E-4,3.1270358E-1,6.044672E-1,-7.96606E-1,3.7711587E0,1.2517763E0,3.6723022E0,-2.6965237E-1,-2.761268E-1,-1.2929267E-1,-1.2620302E-1,-4.6207793E-2,7.2525196E-2,1.4060608E-1,1.4598832E-1,-1.8103566E0,-1.5522976E0,-2.579848E-1,7.2833705E-1,1.7346078E-1,1.513862E0,-5.8912385E-1,8.8392913E-1,-2.4544811E-1,2.518057E1,-5.8912385E-1,3.3359608E1,-5.066929E-1,-5.8912385E-1,2.2508255E1,1.2245728E1,-2.4544811E-1,-2.4544811E-1,1.8462788E1,7.7332873E0,-1.0606802E-2,-3.231532E-1,-2.5367922E-1,2.5448313E-1,-2.579848E-1,-6.822978E-1,2.4957344E-1,2.4957344E-1,-1.0856756E0,5.4817657E0,-1.1654842E0,3.7282258E-1,-8.232162E0,5.083811E-1,-5.291885E0,1E0,-3.8796756E-2,-3.3228114E-2,-3.411844E-2,-2.9833427E-2,-3.070259E-2,-2.7593879E-2,-2.5553703E-2,-2.2009796E-2,-2.4834765E-2,-2.2041949E-2,-2.0210357E-2,-1.5730215E-2,-2.013585E-2,-1.73237E-2,-1.4747587E-2,-9.737002E-3,-1.6109912E-2,-1.3510266E-2,-1.286704E-2,-1.02354E-2,-1.1773084E-2,-7.1707377E-3,-8.74595E-3,-5.066648E-3,-9.194614E-3,-6.626654E-3,-6.5157623E-3,-3.9202864E-3,-5.0106323E-3,-1.3344152E-3,-2.5347674E-3,-3.7769362E-4,-2.7878855E-3,-2.2249878E-4,-1.849662E-2,3.4203913E-4,-5.239133E-4,1.3746166E-3,2.2232905E-3,4.433134E-3,1.4048762E-3,3.8747608E-3,3.233344E-3,6.7213797E-3,4.7788923E-3,7.4947565E-3,7.898562E-3,1.0697023E-2,6.212915E-3,9.6586E-3,1.1906799E-2,1.4325623E-2,1.1115331E-2,1.4658019E-2,1.6166275E-2,1.901769E-2,1.6395874E-2,2.0372145E-2,2.1707121E-2,2.4925932E-2,2.4877181E-2,2.9501328E-2,3.4422513E-2,4.2365216E-2],"split_indices":[5,5,5,5,5,5,5,5,5,4,4,5,4,5,5,5,4,4,4,5,5,5,5,4,4,5,5,4,4,3,5,3,4,3,3,3,4,3,4,3,3,4,4,3,3,4,4,5,7,3,3,3,3,3,3,3,4,3,5,4,5,4,7,0,0,0,0,0,0,0,0,0,0,0,0,0,0,0,0,0,0,0,0,0,0,0,0,0,0,0,0,0,0,0,0,0,0,0,0,0,0,0,0,0,0,0,0,0,0,0,0,0,0,0,0,0,0,0,0,0,0,0,0,0,0,0,0],"split_type":[0,0,0,0,0,0,0,0,0,0,0,0,0,0,0,0,0,0,0,0,0,0,0,0,0,0,0,0,0,0,0,0,0,0,0,0,0,0,0,0,0,0,0,0,0,0,0,0,0,0,0,0,0,0,0,0,0,0,0,0,0,0,0,0,0,0,0,0,0,0,0,0,0,0,0,0,0,0,0,0,0,0,0,0,0,0,0,0,0,0,0,0,0,0,0,0,0,0,0,0,0,0,0,0,0,0,0,0,0,0,0,0,0,0,0,0,0,0,0,0,0,0,0,0,0,0,0],"sum_hessian":[3.84164E5,1.28394E5,2.5577E5,2.9944E4,9.845E4,2.04921E5,5.0849E4,9.162E3,2.0782E4,3.7243E4,6.1207E4,1.20188E5,8.4733E4,3.7245E4,1.3604E4,3.172E3,5.99E3,8.927E3,1.1855E4,1.7299E4,1.9944E4,3.6773E4,2.4434E4,8.1355E4,3.8833E4,4.1361E4,4.3372E4,2.0874E4,1.6371E4,8.975E3,4.629E3,1.687E3,1.485E3,3.736E3,2.254E3,4.669E3,4.258E3,7.563E3,4.292E3,6.85E3,1.0449E4,7.165E3,1.2779E4,1.6537E4,2.0236E4,1.2483E4,1.1951E4,3.6356E4,4.4999E4,1.8219E4,2.0614E4,2.1664E4,1.9697E4,2.5881E4,1.7491E4,8.059E3,1.2815E4,6.519E3,9.852E3,3.012E3,5.963E3,2.995E3,1.634E3,1.352E3,3.35E2,7.28E2,7.57E2,1.505E3,2.231E3,1.494E3,7.6E2,2.557E3,2.112E3,3.617E3,6.41E2,2.97E3,4.593E3,3.819E3,4.73E2,3.445E3,3.405E3,4.41E3,6.039E3,6.302E3,8.63E2,1.0287E4,2.492E3,8.74E3,7.797E3,1.0223E4,1.0013E4,1.0769E4,1.714E3,7.49E3,4.461E3,1.7596E4,1.876E4,7.8E1,4.4921E4,7.999E3,1.022E4,1.0993E4,9.621E3,9.566E3,1.2098E4,4.907E3,1.479E4,1.1434E4,1.4447E4,6.331E3,1.116E4,1.834E3,6.225E3,7.534E3,5.281E3,1.643E3,4.876E3,5.407E3,4.445E3,6.85E2,2.327E3,2.977E3,2.986E3,7.3E2,2.265E3,1.397E3,2.37E2],"tree_param":{"num_deleted":"0","num_feature":"9","num_nodes":"127","size_leaf_vector":"1"}},{"base_weights":[6.329191E-5,-2.0258617E-1,1.0622151E-1,-4.1740367E-1,-1.3474333E-1,5.1157337E-2,3.0754507E-1,-5.6962025E-1,-3.545823E-1,-1.9567165E-1,-9.089862E-2,7.2212205E-3,1.1483344E-1,2.50321E-1,4.7633445E-1,-6.662993E-1,-5.1561314E-1,-4.0501243E-1,-3.1053424E-1,-2.3246837E-1,-1.6821629E-1,-1.10069044E-1,-6.0740072E-2,-7.7464483E-3,3.927183E-2,8.8747725E-2,1.474421E-1,2.1100569E-1,3.0240142E-1,4.3177125E-1,6.208826E-1,-7.2150046E-1,-6.130195E-1,-5.4427963E-1,-4.8661798E-1,-4.2734116E-1,-3.6898375E-1,-3.2518694E-1,-2.7250576E-1,-2.4502099E-1,-1.960338E-1,-1.7958717E-1,-1.3592029E-1,-1.2240852E-1,-8.599628E-2,-7.126067E-2,-3.854258E-2,-3.0161036E-2,3.5649193E-3,2.3130879E-2,5.1214125E-2,6.929235E-2,1.0113311E-1,1.16126046E-1,1.5716863E-1,1.8749496E-1,2.3316416E-1,2.60667E-1,3.2304707E-1,3.9910322E-1,4.7898555E-1,5.638748E-1,6.806903E-1,-3.6870833E-2,-3.2195933E-2,3.0917597E-3,-3.0772818E-2,2.8040686E-3,-2.7275486E-2,-2.4554322E-2,-1.761718E-2,-2.2260148E-2,-2.001392E-2,4.177589E-3,-1.8546615E-2,-1.7149672E-2,-1.5433753E-2,-1.191074E-2,-1.4711745E-2,-1.1932639E-2,-1.4298754E-2,-8.181753E-3,-1.0989736E-2,-8.755122E-3,-1.134075E-2,-5.415049E-3,-7.991484E-3,-5.8931494E-3,-8.123973E-3,-2.5767223E-3,-4.6068085E-3,-4.3022777E-3,-2.2591264E-3,-2.2834975E-3,-6.0153764E-4,-2.055684E-3,-7.2401296E-4,-5.8758404E-4,2.8674008E-4,5.601708E-4,1.6675655E-3,3.4290266E-3,2.2197687E-3,2.0276622E-3,4.1221236E-3,4.053613E-3,5.7075573E-3,6.985E-3,3.9016677E-3,9.98694E-3,7.51963E-3,9.976781E-3,6.8462724E-3,1.3525136E-2,1.044151E-2,1.3577695E-2,1.1304043E-2,1.5036242E-2,1.705811E-2,1.856379E-2,2.1001216E-2,2.2184387E-2,2.5169542E-2,-4.164347E-3,2.8235331E-2,3.289279E-2,4.0748235E-2],"categories":[],"categories_nodes":[],"categories_segments":[],"categories_sizes":[],"default_left":[0,0,1,0,0,1,0,0,0,0,1,1,0,1,0,0,0,1,1,1,1,0,0,0,1,0,0,0,0,0,0,0,0,0,1,0,0,0,0,1,0,1,0,1,1,0,0,0,1,0,0,0,0,0,0,0,1,0,0,0,0,0,0,0,0,0,0,0,0,0,0,0,0,0,0,0,0,0,0,0,0,0,0,0,0,0,0,0,0,0,0,0,0,0,0,0,0,0,0,0,0,0,0,0,0,0,0,0,0,0,0,0,0,0,0,0,0,0,0,0,0,0,0,0,0,0,0],"id":4,"left_children":[1,3,5,7,9,11,13,15,17,19,21,23,25,27,29,31,33,35,37,39,41,43,45,47,49,51,53,55,57,59,61,63,65,67,69,71,73,75,77,79,81,83,85,87,89,91,93,95,97,99,101,103,105,107,109,111,113,115,117,119,121,123,125,-1,-1,-1,-1,-1,-1,-1,-1,-1,-1,-1,-1,-1,-1,-1,-1,-1,-1,-1,-1,-1,-1,-1,-1,-1,-1,-1,-1,-1,-1,-1,-1,-1,-1,-1,-1,-1,-1,-1,-1,-1,-1,-1,-1,-1,-1,-1,-1,-1,-1,-1,-1,-1,-1,-1,-1,-1,-1,-1,-1,-1,-1,-1,-1],"loss_changes":[8.262462E3,1.9241406E3,2.7940168E3,3.0282275E2,2.680371E2,5.536881E2,5.227124E2,4.7985107E1,4.9708008E1,4.2381958E1,3.3730804E1,5.61797E1,6.8719604E1,8.271265E1,8.800635E1,9.304443E0,4.6749268E0,8.253784E0,6.5863037E0,8.156738E0,8.807922E0,1.0586578E1,5.2937393E0,2.0239925E1,7.184906E0,1.08107605E1,1.09198E1,1.19592285E1,1.4897949E1,1.5970093E1,1.0618652E1,1.5280151E0,2.8222656E0,2.2313232E0,1.6054077E0,2.939209E0,3.5651855E0,2.4350586E0,2.417099E0,3.4106445E0,3.506775E0,3.727234E0,4.12117E0,4.2763367E0,2.5540314E0,5.9283676E0,1.3779106E0,4.5977306E0,1.7633948E0,1.9324112E0,2.5341568E0,6.597458E0,7.1539E0,7.6346283E0,7.8728027E0,6.7825317E0,1.0716736E1,2.1074524E0,4.5998535E0,3.452942E0,3.463684E0,9.3963623E-1,4.277649E0,0E0,0E0,0E0,0E0,0E0,0E0,0E0,0E0,0E0,0E0,0E0,0E0,0E0,0E0,0E0,0E0,0E0,0E0,0E0,0E0,0E0,0E0,0E0,0E0,0E0,0E0,0E0,0E0,0E0,0E0,0E0,0E0,0E0,0E0,0E0,0E0,0E0,0E0,0E0,0E0,0E0,0E0,0E0,0E0,0E0,0E0,0E0,0E0,0E0,0E0,0E0,0E0,0E0,0E0,0E0,0E0,0E0,0E0,0E0,0E0,0E0,0E0,0E0,0E0],"parents":[2147483647,0,0,1,1,2,2,3,3,4,4,5,5,6,6,7,7,8,8,9,9,10,10,11,11,12,12,13,13,14,14,15,15,16,16,17,17,18,18,19,19,20,20,21,21,22,22,23,23,24,24,25,25,26,26,27,27,28,28,29,29,30,30,31,31,32,32,33,33,34,34,35,35,36,36,37,37,38,38,39,39,40,40,41,41,42,42,43,43,44,44,45,45,46,46,47,47,48,48,49,49,50,50,51,51,52,52,53,53,54,54,55,55,56,56,57,57,58,58,59,59,60,60,61,61,62,62],"right_children":[2,4,6,8,10,12,14,16,18,20,22,24,26,28,30,32,34,36,38,40,42,44,46,48,50,52,54,56,58,60,62,64,66,68,70,72,74,76,78,80,82,84,86,88,90,92,94,96,98,100,102,104,106,108,110,112,114,116,118,120,122,124,126,-1,-1,-1,-1,-1,-1,-1,-1,-1,-1,-1,-1,-1,-1,-1,-1,-1,-1,-1,-1,-1,-1,-1,-1,-1,-1,-1,-1,-1,-1,-1,-1,-1,-1,-1,-1,-1,-1,-1,-1,-1,-1,-1,-1,-1,-1,-1,-1,-1,-1,-1,-1,-1,-1,-1,-1,-1,-1,-1,-1,-1,-1,-1,-1],"split_conditions":[-6.323156E-2,-3.4991404E-1,2.3E-1,-5.8684886E-1,-1.8656927E-1,6.6684775E-2,4.56136E-1,-7.3384154E-1,-4.4959053E-1,-2.5999767E-1,-9.41659E-2,1.3213629E-2,1.4641592E-1,3.0447277E-1,6.634072E-1,-7.96606E-1,-6.47122E-1,-4.7502923E-1,-3.4192953E-1,-2.4591276E-1,-1.7257972E-1,-1.20128185E-1,-1.7046113E-1,-1.0606802E-2,2.8701695E-2,8.279288E-2,1.3002566E-1,2.3989657E-1,3.43004E-1,5.340221E-1,7.2833705E-1,1.7346078E-1,1.562258E-17,1.562258E-17,-5.119386E-1,-5.177671E-1,1.562258E-17,-4.063908E-1,-2.7946946E-1,-2.1614663E-1,-1.8323484E-1,-1.2685063E-1,-1.0648701E-1,-5.3491462E-2,-1.993536E-1,-4.4069637E-2,-4.6712004E-2,-2.6458805E-2,-2.6741827E-2,2.5448313E-1,2.6209692E-2,1.7112328E-1,-2.5636646E-1,6.97758E-2,9.670088E-2,2.498667E-1,2.3988052E-1,3.9652452E-1,3.7282258E-1,4.6452063E-1,5.736114E-1,1.562258E-17,1E0,-3.6870833E-2,-3.2195933E-2,3.0917597E-3,-3.0772818E-2,2.8040686E-3,-2.7275486E-2,-2.4554322E-2,-1.761718E-2,-2.2260148E-2,-2.001392E-2,4.177589E-3,-1.8546615E-2,-1.7149672E-2,-1.5433753E-2,-1.191074E-2,-1.4711745E-2,-1.1932639E-2,-1.4298754E-2,-8.181753E-3,-1.0989736E-2,-8.755122E-3,-1.134075E-2,-5.415049E-3,-7.991484E-3,-5.8931494E-3,-8.123973E-3,-2.5767223E-3,-4.6068085E-3,-4.3022777E-3,-2.2591264E-3,-2.2834975E-3,-6.0153764E-4,-2.055684E-3,-7.2401296E-4,-5.8758404E-4,2.8674008E-4,5.601708E-4,1.6675655E-3,3.4290266E-3,2.2197687E-3,2.0276622E-3,4.1221236E-3,4.053613E-3,5.7075573E-3,6.985E-3,3.9016677E-3,9.98694E-3,7.51963E-3,9.976781E-3,6.8462724E-3,1.3525136E-2,1.044151E-2,1.3577695E-2,1.1304043E-2,1.5036242E-2,1.705811E-2,1.856379E-2,2.1001216E-2,2.2184387E-2,2.5169542E-2,-4.164347E-3,2.8235331E-2,3.289279E-2,4.0748235E-2],"split_indices":[6,6,6,6,6,6,6,6,6,6,5,6,6,5,6,5,6,5,5,5,5,6,3,5,5,5,5,5,6,5,5,3,0,0,5,6,0,6,8,8,8,8,8,8,7,5,5,6,6,3,7,3,3,8,8,7,8,7,5,5,6,0,6,0,0,0,0,0,0,0,0,0,0,0,0,0,0,0,0,0,0,0,0,0,0,0,0,0,0,0,0,0,0,0,0,0,0,0,0,0,0,0,0,0,0,0,0,0,0,0,0,0,0,0,0,0,0,0,0,0,0,0,0,0,0,0,0],"split_type":[0,0,0,0,0,0,0,0,0,0,0,0,0,0,0,0,0,0,0,0,0,0,0,0,0,0,0,0,0,0,0,0,0,0,0,0,0,0,0,0,0,0,0,0,0,0,0,0,0,0,0,0,0,0,0,0,0,0,0,0,0,0,0,0,0,0,0,0,0,0,0,0,0,0,0,0,0,0,0,0,0,0,0,0,0,0,0,0,0,0,0,0,0,0,0,0,0,0,0,0,0,0,0,0,0,0,0,0,0,0,0,0,0,0,0,0,0,0,0,0,0,0,0,0,0,0,0],"sum_hessian":[3.84068E5,1.3203E5,2.52038E5,3.1688E4,1.00342E5,1.97909E5,5.4129E4,9.255E3,2.2433E4,4.1989E4,5.8353E4,1.17107E5,8.0802E4,4.0426E4,1.3703E4,3.313E3,5.942E3,1.0455E4,1.1978E4,1.7939E4,2.405E4,3.5674E4,2.2679E4,7.9828E4,3.7279E4,4.4893E4,3.5909E4,2.3039E4,1.7387E4,1.0477E4,3.226E3,1.621E3,1.692E3,2.979E3,2.963E3,6.448E3,4.007E3,8.641E3,3.337E3,1.3338E4,4.601E3,1.7784E4,6.266E3,2.3582E4,1.2092E4,1.5385E4,7.294E3,2.6773E4,5.3055E4,1.5854E4,2.1425E4,1.7465E4,2.7428E4,8.513E3,2.7396E4,1.1183E4,1.1856E4,5.759E3,1.1628E4,6.198E3,4.279E3,1.657E3,1.569E3,1.338E3,2.83E2,6E0,1.686E3,6E0,2.973E3,2.865E3,9.8E1,3.875E3,2.573E3,1.7E1,3.99E3,4.148E3,4.493E3,1.299E3,2.038E3,1.1549E4,1.789E3,1.95E3,2.651E3,1.6246E4,1.538E3,2.91E3,3.356E3,2.1183E4,2.399E3,1.83E3,1.0262E4,9.817E3,5.568E3,5.748E3,1.546E3,1.5762E4,1.1011E4,6.583E3,4.6472E4,7.317E3,8.537E3,6.038E3,1.5387E4,5.484E3,1.1981E4,1.0797E4,1.6631E4,5.257E3,3.256E3,3.758E3,2.3638E4,9.03E3,2.153E3,4.674E3,7.182E3,4.375E3,1.384E3,5.217E3,6.411E3,2.668E3,3.53E3,1.757E3,2.522E3,2E0,1.655E3,1.346E3,2.23E2],"tree_param":{"num_deleted":"0","num_feature":"9","num_nodes":"127","size_leaf_vector":"1"}},{"base_weights":[-6.4100564E-6,-1.9848643E-1,9.610647E-2,-4.0969506E-1,-1.3638972E-1,4.41137E-2,2.875164E-1,-5.4090995E-1,-3.4731317E-1,-2.0242245E-1,-9.76948E-2,2.3397084E-3,1.0242215E-1,2.2996818E-1,4.4146377E-1,-6.3230425E-1,-4.9209332E-1,-3.9089704E-1,-3.1006563E-1,-2.353935E-1,-1.6891481E-1,-1.2093812E-1,-5.6882538E-2,-2.9992387E-2,1.4667099E-2,7.33469E-2,1.3668758E-1,1.9608644E-1,2.7930847E-1,3.900769E-1,5.591906E-1,-6.7983675E-1,-5.7758915E-1,-5.3162885E-1,-4.5002297E-1,-4.199482E-1,-3.3814183E-1,-3.4320012E-1,-2.651075E-1,-2.8037438E-1,-2.133882E-1,-2.0274276E-1,-1.449082E-1,-1.5033366E-1,-9.907591E-2,-8.464081E-2,-3.3318665E-2,-5.2808348E-2,9.230959E-4,7.2633215E-5,3.448958E-2,4.9969666E-2,1.03473306E-1,1.0799433E-1,1.6643551E-1,1.5528218E-1,2.2829866E-1,2.3560598E-1,3.0603534E-1,3.62903E-1,4.3308088E-1,5.1245487E-1,6.4355147E-1,-3.5022836E-2,-2.9949713E-2,-3.0541033E-2,-2.6395658E-2,-2.8140813E-2,-2.5081245E-2,-2.3139108E-2,-1.8466664E-2,-2.2608383E-2,-1.9940587E-2,-1.7476022E-2,-1.2691437E-2,-1.8269526E-2,-1.5707718E-2,-1.3940664E-2,-9.643027E-3,-1.526431E-2,-1.2760371E-2,-1.2047151E-2,-9.692485E-3,-1.0642193E-2,-6.143509E-3,-7.852831E-3,-4.190031E-3,-8.648962E-3,-6.2682475E-3,-6.1272513E-3,-3.7744192E-3,-4.926996E-3,-2.1661147E-3,-2.2548286E-3,-3.9210696E-5,-3.7454837E-3,-1.6186809E-3,-4.5007985E-4,1.7099859E-3,-1.3586785E-2,4.8820923E-5,5.011967E-4,2.77145E-3,1.2098058E-3,3.4367088E-3,2.83828E-3,5.963759E-3,4.000829E-3,6.43484E-3,6.6937073E-3,9.197156E-3,5.1733465E-3,8.4815E-3,9.934397E-3,1.2259958E-2,9.2669455E-3,1.2523687E-2,1.387942E-2,1.6314773E-2,1.6710354E-2,2.0018196E-2,2.0278456E-2,2.3597665E-2,2.3071783E-2,2.6907304E-2,3.1095324E-2,3.8151007E-2],"categories":[],"categories_nodes":[],"categories_segments":[],"categories_sizes":[],"default_left":[0,0,1,0,0,1,0,0,0,0,0,0,0,0,0,0,0,0,0,0,0,0,0,0,0,0,0,0,0,0,0,0,0,0,0,0,0,0,0,0,0,0,0,0,0,0,0,0,0,0,0,0,0,0,0,0,0,0,0,0,0,0,0,0,0,0,0,0,0,0,0,0,0,0,0,0,0,0,0,0,0,0,0,0,0,0,0,0,0,0,0,0,0,0,0,0,0,0,0,0,0,0,0,0,0,0,0,0,0,0,0,0,0,0,0,0,0,0,0,0,0,0,0,0,0,0,0],"id":5,"left_children":[1,3,5,7,9,11,13,15,17,19,21,23,25,27,29,31,33,35,37,39,41,43,45,47,49,51,53,55,57,59,61,63,65,67,69,71,73,75,77,79,81,83,85,87,89,91,93,95,97,99,101,103,105,107,109,111,113,115,117,119,121,123,125,-1,-1,-1,-1,-1,-1,-1,-1,-1,-1,-1,-1,-1,-1,-1,-1,-1,-1,-1,-1,-1,-1,-1,-1,-1,-1,-1,-1,-1,-1,-1,-1,-1,-1,-1,-1,-1,-1,-1,-1,-1,-1,-1,-1,-1,-1,-1,-1,-1,-1,-1,-1,-1,-1,-1,-1,-1,-1,-1,-1,-1,-1,-1,-1],"loss_changes":[7.333993E3,1.6450044E3,2.5777566E3,2.3308105E2,2.4765662E2,4.9615277E2,4.900796E2,4.065039E1,3.1239502E1,3.9526978E1,5.797235E1,4.7300377E1,8.469446E1,6.727588E1,9.085278E1,7.911499E0,9.722168E0,1.3494995E1,1.5432861E1,1.780542E1,1.4398285E1,2.501062E1,1.4504944E1,2.3106443E1,2.4855658E1,3.238852E1,3.3293213E1,3.1355042E1,1.9077759E1,1.2093262E1,1.7696167E1,2.4193115E0,2.138916E0,2.6016846E0,2.822876E0,3.7245483E0,2.9476929E0,3.749878E0,4.3288574E0,3.6373901E0,6.480652E0,5.9216003E0,7.7036896E0,9.368408E0,1.2354904E1,5.8437347E0,4.597452E0,8.509987E0,4.5945582E0,1.2156569E1,1.8663944E1,1.2524788E1,1.482547E1,1.1497421E1,1.08974E1,7.817505E0,6.6290894E0,4.606659E0,5.770752E0,6.7781982E0,4.144165E0,3.614441E0,3.7301025E0,0E0,0E0,0E0,0E0,0E0,0E0,0E0,0E0,0E0,0E0,0E0,0E0,0E0,0E0,0E0,0E0,0E0,0E0,0E0,0E0,0E0,0E0,0E0,0E0,0E0,0E0,0E0,0E0,0E0,0E0,0E0,0E0,0E0,0E0,0E0,0E0,0E0,0E0,0E0,0E0,0E0,0E0,0E0,0E0,0E0,0E0,0E0,0E0,0E0,0E0,0E0,0E0,0E0,0E0,0E0,0E0,0E0,0E0,0E0,0E0,0E0,0E0,0E0,0E0],"parents":[2147483647,0,0,1,1,2,2,3,3,4,4,5,5,6,6,7,7,8,8,9,9,10,10,11,11,12,12,13,13,14,14,15,15,16,16,17,17,18,18,19,19,20,20,21,21,22,22,23,23,24,24,25,25,26,26,27,27,28,28,29,29,30,30,31,31,32,32,33,33,34,34,35,35,36,36,37,37,38,38,39,39,40,40,41,41,42,42,43,43,44,44,45,45,46,46,47,47,48,48,49,49,50,50,51,51,52,52,53,53,54,54,55,55,56,56,57,57,58,58,59,59,60,60,61,61,62,62],"right_children":[2,4,6,8,10,12,14,16,18,20,22,24,26,28,30,32,34,36,38,40,42,44,46,48,50,52,54,56,58,60,62,64,66,68,70,72,74,76,78,80,82,84,86,88,90,92,94,96,98,100,102,104,106,108,110,112,114,116,118,120,122,124,126,-1,-1,-1,-1,-1,-1,-1,-1,-1,-1,-1,-1,-1,-1,-1,-1,-1,-1,-1,-1,-1,-1,-1,-1,-1,-1,-1,-1,-1,-1,-1,-1,-1,-1,-1,-1,-1,-1,-1,-1,-1,-1,-1,-1,-1,-1,-1,-1,-1,-1,-1,-1,-1,-1,-1,-1,-1,-1,-1,-1,-1,-1,-1,-1],"split_conditions":[-7.258985E-2,-3.6307013E-1,2.1322626E-1,-5.805558E-1,-2.038785E-1,6.120293E-2,4.2866567E-1,-7.241891E-1,-4.5786273E-1,8.5980004E-1,2.2923656E0,-1.7522119E-2,7.3582065E-1,3.0447277E-1,6.044672E-1,-7.96606E-1,1.3205239E0,3.8641937E0,2.2923656E0,-2.8973076E-1,-2.761268E-1,-1.386639E-1,-1.386639E-1,9.1326356E-1,8.5980004E-1,1.3790259E-1,1.2483663E-1,-9.4824713E-1,-1.9455078E0,1.9776142E0,7.2833705E-1,1.7346078E-1,3.3924341E0,-6.393898E-1,2.6780146E1,-5.066929E-1,3.653582E1,-1.722906E-1,2.518057E1,-4.8630732E-1,-5.8912385E-1,2.518057E1,1.5020964E1,-2.5367922E-1,-2.4544811E-1,1.2633198E1,1.147501E1,-1.722906E-1,9.894202E0,-1.2350537E-1,2.0962544E-3,-2.5636646E-1,-5.995277E-1,2.4957344E-1,2.4957344E-1,-9.961717E-1,2.4957344E-1,-1.3348163E0,2.298236E-1,5.083811E-1,5.083811E-1,-2.9871528E0,1E0,-3.5022836E-2,-2.9949713E-2,-3.0541033E-2,-2.6395658E-2,-2.8140813E-2,-2.5081245E-2,-2.3139108E-2,-1.8466664E-2,-2.2608383E-2,-1.9940587E-2,-1.7476022E-2,-1.2691437E-2,-1.8269526E-2,-1.5707718E-2,-1.3940664E-2,-9.643027E-3,-1.526431E-2,-1.2760371E-2,-1.2047151E-2,-9.692485E-3,-1.0642193E-2,-6.143509E-3,-7.852831E-3,-4.190031E-3,-8.648962E-3,-6.2682475E-3,-6.1272513E-3,-3.7744192E-3,-4.926996E-3,-2.1661147E-3,-2.2548286E-3,-3.9210696E-5,-3.7454837E-3,-1.6186809E-3,-4.5007985E-4,1.7099859E-3,-1.3586785E-2,4.8820923E-5,5.011967E-4,2.77145E-3,1.2098058E-3,3.4367088E-3,2.83828E-3,5.963759E-3,4.000829E-3,6.43484E-3,6.6937073E-3,9.197156E-3,5.1733465E-3,8.4815E-3,9.934397E-3,1.2259958E-2,9.2669455E-3,1.2523687E-2,1.387942E-2,1.6314773E-2,1.6710354E-2,2.0018196E-2,2.0278456E-2,2.3597665E-2,2.3071783E-2,2.6907304E-2,3.1095324E-2,3.8151007E-2],"split_indices":[5,5,5,5,5,5,5,5,5,4,4,5,4,5,5,5,4,4,4,5,5,5,5,4,4,5,5,4,4,4,5,3,4,5,4,3,4,3,4,3,3,4,4,3,3,4,4,3,4,7,5,3,3,3,3,3,3,3,3,5,5,4,7,0,0,0,0,0,0,0,0,0,0,0,0,0,0,0,0,0,0,0,0,0,0,0,0,0,0,0,0,0,0,0,0,0,0,0,0,0,0,0,0,0,0,0,0,0,0,0,0,0,0,0,0,0,0,0,0,0,0,0,0,0,0,0,0],"split_type":[0,0,0,0,0,0,0,0,0,0,0,0,0,0,0,0,0,0,0,0,0,0,0,0,0,0,0,0,0,0,0,0,0,0,0,0,0,0,0,0,0,0,0,0,0,0,0,0,0,0,0,0,0,0,0,0,0,0,0,0,0,0,0,0,0,0,0,0,0,0,0,0,0,0,0,0,0,0,0,0,0,0,0,0,0,0,0,0,0,0,0,0,0,0,0,0,0,0,0,0,0,0,0,0,0,0,0,0,0,0,0,0,0,0,0,0,0,0,0,0,0,0,0,0,0,0,0],"sum_hessian":[3.8445E5,1.25429E5,2.59021E5,2.8497E4,9.6932E4,2.03693E5,5.5328E4,9.18E3,1.9317E4,3.5813E4,6.1119E4,1.18673E5,8.502E4,4.0275E4,1.5053E4,3.192E3,5.988E3,8.897E3,1.042E4,1.8048E4,1.7765E4,3.894E4,2.2179E4,3.2757E4,8.5916E4,4.5995E4,3.9025E4,2.3881E4,1.6394E4,1.0482E4,4.571E3,1.702E3,1.49E3,3.081E3,2.907E3,5.733E3,3.164E3,5.995E3,4.425E3,5.925E3,1.2123E4,7.371E3,1.0394E4,1.6606E4,2.2334E4,1.0182E4,1.1997E4,1.8847E4,1.391E4,4.9484E4,3.6432E4,2.59E4,2.0095E4,1.9867E4,1.9158E4,1.0538E4,1.3343E4,6.225E3,1.0169E4,6.429E3,4.053E3,2.946E3,1.625E3,1.35E3,3.52E2,8.86E2,6.04E2,1.502E3,1.579E3,2.506E3,4.01E2,2.263E3,3.47E3,2.785E3,3.79E2,3.392E3,2.603E3,3.717E3,7.08E2,2.972E3,2.953E3,5.025E3,7.098E3,6.542E3,8.29E2,8.669E3,1.725E3,8.705E3,7.901E3,1.1193E4,1.1141E4,7.618E3,2.564E3,8.808E3,3.189E3,9.053E3,9.794E3,1.0715E4,3.195E3,1.63E2,4.9321E4,1.6802E4,1.963E4,1.0913E4,1.4987E4,5.081E3,1.5014E4,8.451E3,1.1416E4,6.702E3,1.2456E4,2.287E3,8.251E3,4.853E3,8.49E3,1.424E3,4.801E3,4.236E3,5.933E3,3.646E3,2.783E3,2.38E3,1.673E3,9.93E2,1.953E3,1.381E3,2.44E2],"tree_param":{"num_deleted":"0","num_feature":"9","num_nodes":"127","size_leaf_vector":"1"}},{"base_weights":[3.819061E-5,-1.8326177E-1,9.5834814E-2,-3.7711626E-1,-1.21846E-1,4.546242E-2,2.7464348E-1,-5.008122E-1,-3.1335285E-1,-1.7853554E-1,-8.362587E-2,6.556839E-3,1.0280918E-1,2.2341001E-1,4.3043098E-1,-6.0059595E-1,-4.5579067E-1,-3.522269E-1,-2.7455267E-1,-2.061764E-1,-1.4872259E-1,-1.0303273E-1,-5.813815E-2,-7.0512383E-3,3.5595052E-2,8.031759E-2,1.3209684E-1,1.8362014E-1,2.6582575E-1,3.8959286E-1,5.624713E-1,-6.4374083E-1,-5.4951215E-1,-4.97445E-1,-4.3150756E-1,-3.8005188E-1,-3.2319945E-1,-3.0896917E-1,-2.5239134E-1,-2.2335508E-1,-1.6961911E-1,-1.803897E-1,-1.2027108E-1,-1.19043075E-1,-7.133277E-2,-8.9508034E-2,-3.5601113E-2,-2.5590489E-2,3.727314E-3,2.6131192E-2,5.4363936E-2,5.379729E-2,9.6205644E-2,1.12656586E-1,1.6297461E-1,1.5720184E-1,2.2239779E-1,2.3367722E-1,2.9127932E-1,3.5844433E-1,4.3214697E-1,5.036241E-1,6.1351883E-1,-3.317325E-2,-2.8774297E-2,3.7277583E-3,-2.7599841E-2,-2.6723778E-2,-2.3584133E-2,-2.3074571E-2,-1.9555567E-2,-2.0360414E-2,-1.7963974E-2,-1.7858414E-2,-1.4578007E-2,-1.6001545E-2,-1.4051867E-2,-1.4155983E-2,-1.1288328E-2,-1.2312728E-2,-1.032713E-2,-1.0324729E-2,-7.4733444E-3,-1.0022181E-2,-8.175913E-3,-6.6591515E-3,-4.3383273E-3,-6.998054E-3,-5.3878142E-3,-4.7283117E-3,-2.469082E-3,-5.2488474E-3,-3.6007804E-3,-2.326329E-3,-6.165718E-4,-2.0415045E-3,-5.093258E-4,-3.5289835E-4,3.879692E-4,2.915511E-4,1.9010848E-3,1.6362843E-3,3.3433742E-3,1.5112435E-3,3.5801993E-3,3.595244E-3,5.5357954E-3,4.296157E-3,6.6750287E-3,6.0747643E-3,8.659161E-3,6.273914E-3,8.60057E-3,9.284577E-3,1.1780345E-2,9.580311E-3,1.2655598E-2,1.3386495E-2,1.5830714E-2,1.6433014E-2,1.9028602E-2,2.046958E-2,2.3309505E-2,2.3695827E-2,2.6537511E-2,2.9672846E-2,3.6848005E-2],"categories":[],"categories_nodes":[],"categories_segments":[],"categories_sizes":[],"default_left":[0,0,1,0,0,1,0,0,0,1,1,1,0,0,0,0,0,0,0,0,0,0,0,0,0,0,0,0,0,0,0,1,0,0,1,0,1,1,1,0,0,0,0,0,0,0,0,0,0,0,0,0,0,1,0,0,0,0,0,0,0,0,0,0,0,0,0,0,0,0,0,0,0,0,0,0,0,0,0,0,0,0,0,0,0,0,0,0,0,0,0,0,0,0,0,0,0,0,0,0,0,0,0,0,0,0,0,0,0,0,0,0,0,0,0,0,0,0,0,0,0,0,0,0,0,0,0],"id":6,"left_children":[1,3,5,7,9,11,13,15,17,19,21,23,25,27,29,31,33,35,37,39,41,43,45,47,49,51,53,55,57,59,61,63,65,67,69,71,73,75,77,79,81,83,85,87,89,91,93,95,97,99,101,103,105,107,109,111,113,115,117,119,121,123,125,-1,-1,-1,-1,-1,-1,-1,-1,-1,-1,-1,-1,-1,-1,-1,-1,-1,-1,-1,-1,-1,-1,-1,-1,-1,-1,-1,-1,-1,-1,-1,-1,-1,-1,-1,-1,-1,-1,-1,-1,-1,-1,-1,-1,-1,-1,-1,-1,-1,-1,-1,-1,-1,-1,-1,-1,-1,-1,-1,-1,-1,-1,-1,-1],"loss_changes":[6.7532153E3,1.5715806E3,2.2750168E3,2.5033496E2,2.1719055E2,4.3968173E2,4.4300684E2,4.824878E1,3.1516113E1,3.3235596E1,2.9612854E1,4.639689E1,5.2460815E1,7.046216E1,7.386011E1,7.0407715E0,7.318115E0,8.330444E0,7.9259644E0,1.3115723E1,1.7479767E1,1.7244415E1,1.8298515E1,1.5976006E1,6.6535225E0,1.8980286E1,2.0750488E1,2.205194E1,1.6477905E1,1.3757446E1,9.432983E0,2.058899E0,2.4337158E0,2.3580322E0,5.5267944E0,2.8649292E0,5.408264E0,1.1786804E0,5.163147E0,5.433838E0,4.948059E0,3.0769043E0,4.4161987E0,5.3171387E0,5.814438E0,2.9207535E0,3.829687E0,6.899603E0,2.1986272E0,6.012295E0,3.3954391E0,7.0844193E0,9.927216E0,1.182135E1,5.6383057E0,6.0046997E0,4.190979E0,7.2612305E0,6.645752E0,3.8728027E0,3.2416992E0,9.6691895E-1,3.8519897E0,0E0,0E0,0E0,0E0,0E0,0E0,0E0,0E0,0E0,0E0,0E0,0E0,0E0,0E0,0E0,0E0,0E0,0E0,0E0,0E0,0E0,0E0,0E0,0E0,0E0,0E0,0E0,0E0,0E0,0E0,0E0,0E0,0E0,0E0,0E0,0E0,0E0,0E0,0E0,0E0,0E0,0E0,0E0,0E0,0E0,0E0,0E0,0E0,0E0,0E0,0E0,0E0,0E0,0E0,0E0,0E0,0E0,0E0,0E0,0E0,0E0,0E0,0E0,0E0],"parents":[2147483647,0,0,1,1,2,2,3,3,4,4,5,5,6,6,7,7,8,8,9,9,10,10,11,11,12,12,13,13,14,14,15,15,16,16,17,17,18,18,19,19,20,20,21,21,22,22,23,23,24,24,25,25,26,26,27,27,28,28,29,29,30,30,31,31,32,32,33,33,34,34,35,35,36,36,37,37,38,38,39,39,40,40,41,41,42,42,43,43,44,44,45,45,46,46,47,47,48,48,49,49,50,50,51,51,52,52,53,53,54,54,55,55,56,56,57,57,58,58,59,59,60,60,61,61,62,62],"right_children":[2,4,6,8,10,12,14,16,18,20,22,24,26,28,30,32,34,36,38,40,42,44,46,48,50,52,54,56,58,60,62,64,66,68,70,72,74,76,78,80,82,84,86,88,90,92,94,96,98,100,102,104,106,108,110,112,114,116,118,120,122,124,126,-1,-1,-1,-1,-1,-1,-1,-1,-1,-1,-1,-1,-1,-1,-1,-1,-1,-1,-1,-1,-1,-1,-1,-1,-1,-1,-1,-1,-1,-1,-1,-1,-1,-1,-1,-1,-1,-1,-1,-1,-1,-1,-1,-1,-1,-1,-1,-1,-1,-1,-1,-1,-1,-1,-1,-1,-1,-1,-1,-1,-1,-1,-1,-1],"split_conditions":[-6.323156E-2,-3.4991404E-1,2.2642694E-1,-5.629449E-1,-1.9E-1,6.6684775E-2,4.56136E-1,-7.3384154E-1,-4.3338048E-1,-2.3590642E-1,-1.0268155E-1,1.3213629E-2,1.4641592E-1,2.8924936E-1,6.634072E-1,-8.073387E-1,-1.8103566E0,5.412746E-1,-1.4443005E0,4.4591613E0,-8.575836E-1,3.237756E0,-2.244362E0,-3.56901E-3,3.0576568E0,-9.127989E-1,2.3557146E0,3.318766E0,3.520724E-1,5.433935E-1,7.3671174E-1,-7.96606E-1,4.6264286E0,-6.47122E-1,-6.0883415E-1,-4.9971896E-1,-4.9313298E-1,-3.3190492E-1,-3.8691205E-1,-2.9963854E-1,-3.226511E-1,-4.94176E0,6.3366838E0,-2.760915E0,-1.6181673E-1,-6.2087566E-2,3.1394722E0,7.3582065E-1,-3.8804665E0,3.0789087E-2,4.2696176E-3,1.0803083E-1,7.20017E-2,1.6547868E-1,1.1276785E-1,2.1322626E-1,1.981092E-1,-4.244766E0,1.0707495E0,-9.4824713E-1,2.2120626E0,-1.3758117E-1,1E0,-3.317325E-2,-2.8774297E-2,3.7277583E-3,-2.7599841E-2,-2.6723778E-2,-2.3584133E-2,-2.3074571E-2,-1.9555567E-2,-2.0360414E-2,-1.7963974E-2,-1.7858414E-2,-1.4578007E-2,-1.6001545E-2,-1.4051867E-2,-1.4155983E-2,-1.1288328E-2,-1.2312728E-2,-1.032713E-2,-1.0324729E-2,-7.4733444E-3,-1.0022181E-2,-8.175913E-3,-6.6591515E-3,-4.3383273E-3,-6.998054E-3,-5.3878142E-3,-4.7283117E-3,-2.469082E-3,-5.2488474E-3,-3.6007804E-3,-2.326329E-3,-6.165718E-4,-2.0415045E-3,-5.093258E-4,-3.5289835E-4,3.879692E-4,2.915511E-4,1.9010848E-3,1.6362843E-3,3.3433742E-3,1.5112435E-3,3.5801993E-3,3.595244E-3,5.5357954E-3,4.296157E-3,6.6750287E-3,6.0747643E-3,8.659161E-3,6.273914E-3,8.60057E-3,9.284577E-3,1.1780345E-2,9.580311E-3,1.2655598E-2,1.3386495E-2,1.5830714E-2,1.6433014E-2,1.9028602E-2,2.046958E-2,2.3309505E-2,2.3695827E-2,2.6537511E-2,2.9672846E-2,3.6848005E-2],"split_indices":[6,6,6,6,6,6,6,6,6,5,5,6,6,5,6,6,4,4,4,4,4,4,4,5,4,4,4,4,6,6,6,5,0,6,5,6,5,5,5,6,5,4,4,4,5,5,4,4,4,5,5,5,5,5,5,5,5,4,4,4,4,4,6,0,0,0,0,0,0,0,0,0,0,0,0,0,0,0,0,0,0,0,0,0,0,0,0,0,0,0,0,0,0,0,0,0,0,0,0,0,0,0,0,0,0,0,0,0,0,0,0,0,0,0,0,0,0,0,0,0,0,0,0,0,0,0,0],"split_type":[0,0,0,0,0,0,0,0,0,0,0,0,0,0,0,0,0,0,0,0,0,0,0,0,0,0,0,0,0,0,0,0,0,0,0,0,0,0,0,0,0,0,0,0,0,0,0,0,0,0,0,0,0,0,0,0,0,0,0,0,0,0,0,0,0,0,0,0,0,0,0,0,0,0,0,0,0,0,0,0,0,0,0,0,0,0,0,0,0,0,0,0,0,0,0,0,0,0,0,0,0,0,0,0,0,0,0,0,0,0,0,0,0,0,0,0,0,0,0,0,0,0,0,0,0,0,0],"sum_hessian":[3.84588E5,1.32005E5,2.52583E5,3.1758E4,1.00247E5,1.97068E5,5.5515E4,1.08E4,2.0958E4,4.0368E4,5.9879E4,1.17413E5,7.9655E4,4.1778E4,1.3737E4,3.354E3,7.446E3,1.0465E4,1.0493E4,2.0944E4,1.9424E4,3.3993E4,2.5886E4,7.9948E4,3.7465E4,4.5057E4,3.4598E4,2.1559E4,2.0219E4,1.0495E4,3.242E3,1.812E3,1.542E3,2.735E3,4.711E3,5.337E3,5.128E3,4.105E3,6.388E3,1.4245E4,6.699E3,9.19E3,1.0234E4,2.2584E4,1.1409E4,1.0821E4,1.5065E4,2.9392E4,5.0556E4,2.4908E4,1.2557E4,1.6882E4,2.8175E4,2.1234E4,1.3364E4,1.2826E4,8.733E3,8.939E3,1.128E4,6.065E3,4.43E3,1.511E3,1.731E3,1.399E3,4.13E2,6E0,1.536E3,1.114E3,1.621E3,2.698E3,2.013E3,2.305E3,3.032E3,2.468E3,2.66E3,2.933E3,1.172E3,2.961E3,3.427E3,6.025E3,8.22E3,2.364E3,4.335E3,4.194E3,4.996E3,7.385E3,2.849E3,7.911E3,1.4673E4,5.541E3,5.868E3,5.74E3,5.081E3,1.0251E4,4.814E3,1.4774E4,1.4618E4,1.3757E4,3.6799E4,9.201E3,1.5707E4,4.6E3,7.957E3,7.266E3,9.616E3,1.0536E4,1.7639E4,9.305E3,1.1929E4,2.642E3,1.0722E4,4.085E3,8.741E3,2.315E3,6.418E3,2.828E3,6.111E3,5.852E3,5.428E3,2.592E3,3.473E3,2.663E3,1.767E3,7.3E2,7.81E2,1.494E3,2.37E2],"tree_param":{"num_deleted":"0","num_feature":"9","num_nodes":"127","size_leaf_vector":"1"}},{"base_weights":[-2.3812367E-5,-1.6958073E-1,9.336401E-2,-3.5284647E-1,-1.10567674E-1,4.7418214E-2,2.702402E-1,-4.7630724E-1,-2.93601E-1,-1.6377947E-1,-7.427641E-2,1.0259515E-2,1.0397475E-1,2.2277826E-1,4.210434E-1,-5.7261956E-1,-4.328956E-1,-3.3371842E-1,-2.5831875E-1,-1.922352E-1,-1.3903809E-1,-9.024473E-2,-4.70491E-2,-4.978574E-3,3.6696397E-2,8.338886E-2,1.3425738E-1,1.9187176E-1,2.744443E-1,3.799235E-1,5.3319925E-1,-6.1380994E-1,-5.2283126E-1,-4.7107887E-1,-4.0868184E-1,-3.5174185E-1,-2.906227E-1,-2.9327437E-1,-2.3937221E-1,-2.2686666E-1,-1.7612587E-1,-1.6821352E-1,-1.2291036E-1,-1.0706614E-1,-6.326335E-2,-7.734492E-2,-2.627442E-2,-2.2739904E-2,3.3061814E-3,1.9263677E-2,4.6463463E-2,6.664654E-2,1.0900313E-1,9.8601244E-2,1.5060832E-1,1.6630416E-1,2.2602281E-1,2.3760542E-1,2.9394004E-1,3.4979385E-1,4.1362157E-1,4.8190504E-1,5.872821E-1,-3.1624E-2,-2.7376736E-2,-2.7756026E-2,-2.4147054E-2,-2.5354156E-2,-2.23099E-2,-2.1794697E-2,-1.8562984E-2,-1.838477E-2,-1.5890421E-2,-1.6109942E-2,-1.3001961E-2,-1.5755972E-2,-1.3978775E-2,-1.3299537E-2,-1.06376875E-2,-1.1905505E-2,-1.0146647E-2,-9.737353E-3,-7.22284E-3,-8.70621E-3,-6.8983585E-3,-7.0159594E-3,-4.590297E-3,-5.9846686E-3,-4.4820774E-3,-4.4280062E-3,-2.2641674E-3,-4.448151E-3,-3.0340913E-3,-1.8789748E-3,-4.237027E-4,-1.7538428E-3,-3.309372E-4,-3.0969092E-4,3.723234E-4,2.1445525E-5,1.5863938E-3,1.4151748E-3,3.1227195E-3,2.1009974E-3,4.1062003E-3,4.095963E-3,6.1435257E-3,3.5603128E-3,5.985673E-3,6.3044927E-3,8.361044E-3,6.783823E-3,9.396668E-3,9.995571E-3,1.2557347E-2,1.061258E-2,1.3371276E-2,1.3593626E-2,1.5894467E-2,1.6211955E-2,1.95681E-2,1.835226E-2,2.1736447E-2,2.2992274E-2,2.6574064E-2,2.8338825E-2,3.4970786E-2],"categories":[],"categories_nodes":[],"categories_segments":[],"categories_sizes":[],"default_left":[0,0,1,0,0,1,0,0,0,0,1,1,0,1,0,0,0,0,0,0,0,0,0,0,0,0,0,0,0,0,0,1,0,0,1,1,0,0,1,1,1,1,1,0,0,0,0,0,0,1,1,0,0,1,0,0,0,0,0,0,0,0,0,0,0,0,0,0,0,0,0,0,0,0,0,0,0,0,0,0,0,0,0,0,0,0,0,0,0,0,0,0,0,0,0,0,0,0,0,0,0,0,0,0,0,0,0,0,0,0,0,0,0,0,0,0,0,0,0,0,0,0,0,0,0,0,0],"id":7,"left_children":[1,3,5,7,9,11,13,15,17,19,21,23,25,27,29,31,33,35,37,39,41,43,45,47,49,51,53,55,57,59,61,63,65,67,69,71,73,75,77,79,81,83,85,87,89,91,93,95,97,99,101,103,105,107,109,111,113,115,117,119,121,123,125,-1,-1,-1,-1,-1,-1,-1,-1,-1,-1,-1,-1,-1,-1,-1,-1,-1,-1,-1,-1,-1,-1,-1,-1,-1,-1,-1,-1,-1,-1,-1,-1,-1,-1,-1,-1,-1,-1,-1,-1,-1,-1,-1,-1,-1,-1,-1,-1,-1,-1,-1,-1,-1,-1,-1,-1,-1,-1,-1,-1,-1,-1,-1,-1],"loss_changes":[6.091124E3,1.4775271E3,2.0158354E3,2.4326465E2,1.9955981E2,4.138081E2,3.6599316E2,4.4861572E1,3.1745361E1,2.9474365E1,2.6709595E1,4.787136E1,4.865979E1,6.2072998E1,5.6260254E1,6.5473633E0,6.687134E0,8.06897E0,7.857422E0,1.0831055E1,1.05277405E1,1.7570526E1,1.4295101E1,1.1092553E1,7.3971863E0,1.992575E1,1.8404846E1,2.1221313E1,1.0387207E1,8.95459E0,8.821716E0,1.9143066E0,1.6935425E0,2.3545532E0,4.482788E0,3.8963013E0,2.9176636E0,1.1696472E0,5.447357E0,1.615509E0,7.8174744E0,1.4022522E0,7.806793E0,5.237732E0,6.761677E0,1.7834053E0,2.7117186E0,4.7686567E0,2.0219846E0,3.663186E0,8.08485E0,1.0711266E1,6.8897552E0,5.7381516E0,8.800903E0,9.2005005E0,6.786194E0,3.756775E0,4.9432373E0,4.906067E0,3.9940796E0,1.6038513E0,3.2664185E0,0E0,0E0,0E0,0E0,0E0,0E0,0E0,0E0,0E0,0E0,0E0,0E0,0E0,0E0,0E0,0E0,0E0,0E0,0E0,0E0,0E0,0E0,0E0,0E0,0E0,0E0,0E0,0E0,0E0,0E0,0E0,0E0,0E0,0E0,0E0,0E0,0E0,0E0,0E0,0E0,0E0,0E0,0E0,0E0,0E0,0E0,0E0,0E0,0E0,0E0,0E0,0E0,0E0,0E0,0E0,0E0,0E0,0E0,0E0,0E0,0E0,0E0,0E0,0E0],"parents":[2147483647,0,0,1,1,2,2,3,3,4,4,5,5,6,6,7,7,8,8,9,9,10,10,11,11,12,12,13,13,14,14,15,15,16,16,17,17,18,18,19,19,20,20,21,21,22,22,23,23,24,24,25,25,26,26,27,27,28,28,29,29,30,30,31,31,32,32,33,33,34,34,35,35,36,36,37,37,38,38,39,39,40,40,41,41,42,42,43,43,44,44,45,45,46,46,47,47,48,48,49,49,50,50,51,51,52,52,53,53,54,54,55,55,56,56,57,57,58,58,59,59,60,60,61,61,62,62],"right_children":[2,4,6,8,10,12,14,16,18,20,22,24,26,28,30,32,34,36,38,40,42,44,46,48,50,52,54,56,58,60,62,64,66,68,70,72,74,76,78,80,82,84,86,88,90,92,94,96,98,100,102,104,106,108,110,112,114,116,118,120,122,124,126,-1,-1,-1,-1,-1,-1,-1,-1,-1,-1,-1,-1,-1,-1,-1,-1,-1,-1,-1,-1,-1,-1,-1,-1,-1,-1,-1,-1,-1,-1,-1,-1,-1,-1,-1,-1,-1,-1,-1,-1,-1,-1,-1,-1,-1,-1,-1,-1,-1,-1,-1,-1,-1,-1,-1,-1,-1,-1,-1,-1,-1,-1,-1,-1],"split_conditions":[-5.3426553E-2,-3.4001914E-1,2.3982759E-1,-5.629449E-1,-1.8316387E-1,7.687673E-2,4.7335887E-1,-7.3384154E-1,-4.3338048E-1,-2.4976563E-1,-8.59931E-2,1.3213629E-2,1.6017236E-1,3.3051768E-1,6.634072E-1,-8.073387E-1,-1.4443005E0,4.7723713E0,-2.1162164E0,-2.3776784E0,-1.6138613E0,2.2923656E0,-2.4113612E0,-8.052383E-3,-8.575836E-1,2.2120626E0,-2.3181164E0,2.756402E0,-2.9871528E0,5.340221E-1,7.2833705E-1,-7.96606E-1,1.513862E0,-6.47122E-1,-6.0883415E-1,-4.419724E-1,-4.9313298E-1,-3.9333335E-1,-3.7470242E-1,-2.3590642E-1,-2.572198E-1,-1.4527342E-1,-1.8747975E-1,-1.2674432E-1,-1.5846236E-1,-4.4069637E-2,-4.6712004E-2,1.7116337E0,-3.0517042E0,5.0514337E-2,2.8701695E-2,1.033207E-1,7.20017E-2,1.8757086E-1,1.5683645E-1,2.5053364E-1,2.5053364E-1,3.9922556E-1,3.85332E-1,4.1578674E0,-4.244766E0,5.749825E0,1E0,-3.1624E-2,-2.7376736E-2,-2.7756026E-2,-2.4147054E-2,-2.5354156E-2,-2.23099E-2,-2.1794697E-2,-1.8562984E-2,-1.838477E-2,-1.5890421E-2,-1.6109942E-2,-1.3001961E-2,-1.5755972E-2,-1.3978775E-2,-1.3299537E-2,-1.06376875E-2,-1.1905505E-2,-1.0146647E-2,-9.737353E-3,-7.22284E-3,-8.70621E-3,-6.8983585E-3,-7.0159594E-3,-4.590297E-3,-5.9846686E-3,-4.4820774E-3,-4.4280062E-3,-2.2641674E-3,-4.448151E-3,-3.0340913E-3,-1.8789748E-3,-4.237027E-4,-1.7538428E-3,-3.309372E-4,-3.0969092E-4,3.723234E-4,2.1445525E-5,1.5863938E-3,1.4151748E-3,3.1227195E-3,2.1009974E-3,4.1062003E-3,4.095963E-3,6.1435257E-3,3.5603128E-3,5.985673E-3,6.3044927E-3,8.361044E-3,6.783823E-3,9.396668E-3,9.995571E-3,1.2557347E-2,1.061258E-2,1.3371276E-2,1.3593626E-2,1.5894467E-2,1.6211955E-2,1.95681E-2,1.835226E-2,2.1736447E-2,2.2992274E-2,2.6574064E-2,2.8338825E-2,3.4970786E-2],"split_indices":[6,6,6,6,6,6,6,6,6,6,5,6,6,5,6,6,4,4,4,4,4,4,4,5,4,4,4,4,4,5,5,5,4,6,5,5,5,6,5,5,5,5,5,6,5,5,5,4,4,5,5,5,5,5,5,5,5,5,5,4,4,4,6,0,0,0,0,0,0,0,0,0,0,0,0,0,0,0,0,0,0,0,0,0,0,0,0,0,0,0,0,0,0,0,0,0,0,0,0,0,0,0,0,0,0,0,0,0,0,0,0,0,0,0,0,0,0,0,0,0,0,0,0,0,0,0,0],"split_type":[0,0,0,0,0,0,0,0,0,0,0,0,0,0,0,0,0,0,0,0,0,0,0,0,0,0,0,0,0,0,0,0,0,0,0,0,0,0,0,0,0,0,0,0,0,0,0,0,0,0,0,0,0,0,0,0,0,0,0,0,0,0,0,0,0,0,0,0,0,0,0,0,0,0,0,0,0,0,0,0,0,0,0,0,0,0,0,0,0,0,0,0,0,0,0,0,0,0,0,0,0,0,0,0,0,0,0,0,0,0,0,0,0,0,0,0,0,0,0,0,0,0,0,0,0,0,0],"sum_hessian":[3.84671E5,1.3662E5,2.48051E5,3.3276E4,1.03344E5,1.96904E5,5.1147E4,1.0788E4,2.2488E4,4.1902E4,6.1442E4,1.18831E5,7.8073E4,3.8905E4,1.2242E4,3.348E3,7.44E3,1.0519E4,1.1969E4,1.9485E4,2.2417E4,3.8727E4,2.2715E4,7.5382E4,4.3449E4,4.648E4,3.1593E4,2.4346E4,1.4559E4,8.961E3,3.281E3,1.826E3,1.522E3,2.88E3,4.56E3,7.412E3,3.107E3,4.202E3,7.767E3,6.182E3,1.3303E4,7.977E3,1.444E4,2.3853E4,1.4874E4,9.239E3,1.3476E4,2.3977E4,5.1405E4,1.5603E4,2.7846E4,2.811E4,1.837E4,9.935E3,2.1658E4,1.3926E4,1.042E4,5.043E3,9.516E3,4.737E3,4.224E3,1.689E3,1.592E3,1.418E3,4.08E2,8.34E2,6.88E2,1.169E3,1.711E3,2.634E3,1.926E3,5.035E3,2.377E3,1.524E3,1.583E3,1.611E3,2.591E3,3.879E3,3.888E3,4.2E3,1.982E3,8.374E3,4.929E3,6.669E3,1.308E3,9.256E3,5.184E3,1.3827E4,1.0026E4,6.178E3,8.696E3,5.441E3,3.798E3,8.241E3,5.235E3,1.3582E4,1.0395E4,1.5603E4,3.5802E4,6.214E3,9.389E3,1.304E4,1.4806E4,1.085E4,1.726E4,6.223E3,1.2147E4,4.326E3,5.609E3,8.751E3,1.2907E4,5.767E3,8.159E3,5.114E3,5.306E3,2.73E3,2.313E3,4.959E3,4.557E3,2.939E3,1.798E3,1.323E3,2.901E3,1.176E3,5.13E2,1.351E3,2.41E2],"tree_param":{"num_deleted":"0","num_feature":"9","num_nodes":"127","size_leaf_vector":"1"}},{"base_weights":[-1.3513502E-4,-1.7344408E-1,8.102742E-2,-3.511069E-1,-1.1929137E-1,3.5834204E-2,2.4423063E-1,-4.634912E-1,-2.9800442E-1,-1.7795041E-1,-8.797582E-2,-2.80625E-4,8.549298E-2,1.9550602E-1,3.7953997E-1,-5.433762E-1,-4.2107114E-1,-3.4232977E-1,-2.702609E-1,-1.9964072E-1,-1.3809103E-1,-1.1308766E-1,-5.9502993E-2,-3.0960781E-2,1.00032585E-2,4.8810426E-2,1.0669404E-1,1.6484852E-1,2.3640433E-1,3.351099E-1,4.7948322E-1,-5.837191E-1,-4.96885E-1,-4.4964916E-1,-3.7382632E-1,-3.6459717E-1,-2.9041493E-1,-2.9105642E-1,-2.1387018E-1,-2.3507784E-1,-1.8055399E-1,-1.4755663E-1,-6.927159E-2,-1.392715E-1,-9.346938E-2,-8.4143184E-2,-3.901651E-2,-5.141032E-2,-3.6062335E-3,-2.5875268E-3,2.7236125E-2,2.7380893E-2,7.221735E-2,8.176775E-2,1.3200295E-1,1.24239706E-1,1.9031677E-1,2.0580989E-1,2.656705E-1,2.9176375E-1,3.5692874E-1,4.3971926E-1,5.510907E-1,-3.0506784E-2,-2.6317835E-2,-2.6203407E-2,-2.2291532E-2,-2.3775538E-2,-2.1225771E-2,-1.926372E-2,-1.47938235E-2,-1.9788375E-2,-1.7321965E-2,-1.5780201E-2,-1.2959163E-2,-1.5673466E-2,-1.3309344E-2,-1.1240697E-2,-6.585968E-3,-1.2958285E-2,-1.0784473E-2,-9.953464E-3,-7.864772E-3,-8.801882E-3,-6.330706E-3,-5.245868E-3,-2.3194354E-3,-7.866978E-3,-5.7891645E-3,-5.6278775E-3,-3.5780575E-3,-5.0031664E-3,-2.5135379E-3,-2.6470264E-3,-6.690387E-4,-3.6318544E-3,-1.6581534E-3,1.5932184E-3,-5.8557495E-4,-1.4453835E-2,-9.9761084E-5,4.6254342E-4,2.256123E-3,8.5026106E-5,1.9940508E-3,1.7902207E-3,4.3837447E-3,3.031071E-3,5.209895E-3,5.329219E-3,7.597768E-3,3.9139027E-3,6.912065E-3,8.211959E-3,1.0259794E-2,8.487062E-3,1.109838E-2,1.235306E-2,1.4611703E-2,1.1897895E-2,1.5437486E-2,1.6288133E-2,1.9023001E-2,1.9121494E-2,2.2926264E-2,2.3291212E-2,2.8832307E-2],"categories":[],"categories_nodes":[],"categories_segments":[],"categories_sizes":[],"default_left":[0,0,1,0,0,1,0,0,0,0,0,0,0,0,0,0,0,0,0,0,0,0,0,0,0,0,0,0,0,0,0,0,0,0,0,0,0,0,0,0,0,0,0,0,0,0,0,0,0,0,0,0,0,0,0,0,0,0,0,0,0,0,0,0,0,0,0,0,0,0,0,0,0,0,0,0,0,0,0,0,0,0,0,0,0,0,0,0,0,0,0,0,0,0,0,0,0,0,0,0,0,0,0,0,0,0,0,0,0,0,0,0,0,0,0,0,0,0,0,0,0,0,0,0,0,0,0],"id":8,"left_children":[1,3,5,7,9,11,13,15,17,19,21,23,25,27,29,31,33,35,37,39,41,43,45,47,49,51,53,55,57,59,61,63,65,67,69,71,73,75,77,79,81,83,85,87,89,91,93,95,97,99,101,103,105,107,109,111,113,115,117,119,121,123,125,-1,-1,-1,-1,-1,-1,-1,-1,-1,-1,-1,-1,-1,-1,-1,-1,-1,-1,-1,-1,-1,-1,-1,-1,-1,-1,-1,-1,-1,-1,-1,-1,-1,-1,-1,-1,-1,-1,-1,-1,-1,-1,-1,-1,-1,-1,-1,-1,-1,-1,-1,-1,-1,-1,-1,-1,-1,-1,-1,-1,-1,-1,-1,-1],"loss_changes":[5.4080312E3,1.1797239E3,1.9312756E3,1.7081226E2,1.7262183E2,3.6776193E2,3.7429688E2,3.0913452E1,2.3833252E1,2.8251343E1,4.3803802E1,3.7458424E1,6.7143005E1,5.231128E1,6.659326E1,5.681946E0,7.942383E0,8.547974E0,1.397583E1,1.4283203E1,7.5006104E0,1.6710876E1,1.449279E1,1.6672367E1,1.929308E1,1.586161E1,3.450714E1,2.4660461E1,1.5960144E1,9.741211E0,1.2924072E1,2.253357E0,1.8286438E0,2.2278442E0,1.9116821E0,2.8258667E0,1.6898346E0,4.789917E0,2.8733826E0,3.405243E0,5.89859E0,6.022888E0,1.1338191E0,5.8990173E0,7.776535E0,7.0246887E0,5.597023E0,6.603508E0,3.6662683E0,8.718042E0,1.2075516E1,5.300414E0,8.504402E0,1.3070084E1,1.3752258E1,5.9109955E0,5.6568604E0,5.0611267E0,4.4450073E0,3.117096E0,4.95105E0,3.033142E0,3.320221E0,0E0,0E0,0E0,0E0,0E0,0E0,0E0,0E0,0E0,0E0,0E0,0E0,0E0,0E0,0E0,0E0,0E0,0E0,0E0,0E0,0E0,0E0,0E0,0E0,0E0,0E0,0E0,0E0,0E0,0E0,0E0,0E0,0E0,0E0,0E0,0E0,0E0,0E0,0E0,0E0,0E0,0E0,0E0,0E0,0E0,0E0,0E0,0E0,0E0,0E0,0E0,0E0,0E0,0E0,0E0,0E0,0E0,0E0,0E0,0E0,0E0,0E0,0E0,0E0],"parents":[2147483647,0,0,1,1,2,2,3,3,4,4,5,5,6,6,7,7,8,8,9,9,10,10,11,11,12,12,13,13,14,14,15,15,16,16,17,17,18,18,19,19,20,20,21,21,22,22,23,23,24,24,25,25,26,26,27,27,28,28,29,29,30,30,31,31,32,32,33,33,34,34,35,35,36,36,37,37,38,38,39,39,40,40,41,41,42,42,43,43,44,44,45,45,46,46,47,47,48,48,49,49,50,50,51,51,52,52,53,53,54,54,55,55,56,56,57,57,58,58,59,59,60,60,61,61,62,62],"right_children":[2,4,6,8,10,12,14,16,18,20,22,24,26,28,30,32,34,36,38,40,42,44,46,48,50,52,54,56,58,60,62,64,66,68,70,72,74,76,78,80,82,84,86,88,90,92,94,96,98,100,102,104,106,108,110,112,114,116,118,120,122,124,126,-1,-1,-1,-1,-1,-1,-1,-1,-1,-1,-1,-1,-1,-1,-1,-1,-1,-1,-1,-1,-1,-1,-1,-1,-1,-1,-1,-1,-1,-1,-1,-1,-1,-1,-1,-1,-1,-1,-1,-1,-1,-1,-1,-1,-1,-1,-1,-1,-1,-1,-1,-1,-1,-1,-1,-1,-1,-1,-1,-1,-1,-1,-1,-1],"split_conditions":[-7.7742554E-2,-3.6307013E-1,2.0922326E-1,-5.805558E-1,-2.1247189E-1,5.6781128E-2,4.2866567E-1,-7.241891E-1,-4.7502923E-1,3.237756E0,7.9807657E-1,-2.6967006E-2,-1.5522976E0,2.9641882E-1,6.044672E-1,-7.96606E-1,3.7711587E0,5.242229E0,6.647285E0,-2.8973076E-1,2.6780146E1,-1.4527342E-1,-1.4527342E-1,9.1326356E-1,8.5980004E-1,1.3002566E-1,1.2001051E-1,-1.8749927E0,-4.6207793E-2,-2.579848E-1,7.2833705E-1,5.8918633E0,4.4591613E0,-6.393898E-1,3.3359608E1,-5.066929E-1,6.0494965E-1,-1.722906E-1,4.0671272E1,-4.8630732E-1,-1.722906E-1,-2.8259513E-1,-2.968118E-1,-2.4544811E-1,-2.4544811E-1,8.372478E0,7.1572285E0,-2.5367922E-1,-1.2017213E-1,-2.0312968E-1,1.4113219E-4,-6.6165644E-1,-6.822978E-1,2.4957344E-1,2.4957344E-1,-9.961717E-1,1.7112328E-1,-6.6165644E-1,3.614396E-1,-8.0077305E0,4.8590603E-1,-5.291885E0,-3.3656627E-1,-3.0506784E-2,-2.6317835E-2,-2.6203407E-2,-2.2291532E-2,-2.3775538E-2,-2.1225771E-2,-1.926372E-2,-1.47938235E-2,-1.9788375E-2,-1.7321965E-2,-1.5780201E-2,-1.2959163E-2,-1.5673466E-2,-1.3309344E-2,-1.1240697E-2,-6.585968E-3,-1.2958285E-2,-1.0784473E-2,-9.953464E-3,-7.864772E-3,-8.801882E-3,-6.330706E-3,-5.245868E-3,-2.3194354E-3,-7.866978E-3,-5.7891645E-3,-5.6278775E-3,-3.5780575E-3,-5.0031664E-3,-2.5135379E-3,-2.6470264E-3,-6.690387E-4,-3.6318544E-3,-1.6581534E-3,1.5932184E-3,-5.8557495E-4,-1.4453835E-2,-9.9761084E-5,4.6254342E-4,2.256123E-3,8.5026106E-5,1.9940508E-3,1.7902207E-3,4.3837447E-3,3.031071E-3,5.209895E-3,5.329219E-3,7.597768E-3,3.9139027E-3,6.912065E-3,8.211959E-3,1.0259794E-2,8.487062E-3,1.109838E-2,1.235306E-2,1.4611703E-2,1.1897895E-2,1.5437486E-2,1.6288133E-2,1.9023001E-2,1.9121494E-2,2.2926264E-2,2.3291212E-2,2.8832307E-2],"split_indices":[5,5,5,5,5,5,5,5,5,4,4,5,4,5,5,5,4,4,4,5,4,5,5,4,4,5,5,4,4,3,5,4,4,5,4,3,3,3,4,3,3,5,5,3,3,4,4,3,8,7,5,3,3,3,3,3,3,3,5,4,5,4,3,0,0,0,0,0,0,0,0,0,0,0,0,0,0,0,0,0,0,0,0,0,0,0,0,0,0,0,0,0,0,0,0,0,0,0,0,0,0,0,0,0,0,0,0,0,0,0,0,0,0,0,0,0,0,0,0,0,0,0,0,0,0,0,0],"split_type":[0,0,0,0,0,0,0,0,0,0,0,0,0,0,0,0,0,0,0,0,0,0,0,0,0,0,0,0,0,0,0,0,0,0,0,0,0,0,0,0,0,0,0,0,0,0,0,0,0,0,0,0,0,0,0,0,0,0,0,0,0,0,0,0,0,0,0,0,0,0,0,0,0,0,0,0,0,0,0,0,0,0,0,0,0,0,0,0,0,0,0,0,0,0,0,0,0,0,0,0,0,0,0,0,0,0,0,0,0,0,0,0,0,0,0,0,0,0,0,0,0,0,0,0,0,0,0],"sum_hessian":[3.84468E5,1.22624E5,2.61844E5,2.8644E4,9.398E4,2.05061E5,5.6783E4,9.189E3,1.9455E4,3.2708E4,6.1272E4,1.18721E5,8.634E4,4.1751E4,1.5032E4,3.183E3,6.006E3,7.485E3,1.197E4,2.1179E4,1.1529E4,3.2556E4,2.8716E4,2.9804E4,8.8917E4,3.1625E4,5.4715E4,2.3866E4,1.7885E4,1.0409E4,4.623E3,1.698E3,1.485E3,3.737E3,2.269E3,5.234E3,2.251E3,8.742E3,3.228E3,7.41E3,1.3769E4,1.0134E4,1.395E3,1.3942E4,1.8614E4,1.3035E4,1.5681E4,1.7054E4,1.275E4,5.1379E4,3.7538E4,1.6511E4,1.5114E4,2.7568E4,2.7147E4,9.201E3,1.4665E4,8.748E3,9.137E3,3.49E3,6.919E3,2.977E3,1.646E3,1.156E3,5.42E2,9.63E2,5.22E2,1.833E3,1.904E3,1.975E3,2.94E2,1.919E3,3.315E3,1.241E3,1.01E3,4.592E3,4.15E3,2.847E3,3.81E2,3.299E3,4.111E3,7.662E3,6.107E3,4.291E3,5.843E3,5.44E2,8.51E2,7.877E3,6.065E3,9.945E3,8.669E3,8.866E3,4.169E3,1.0161E4,5.52E3,7.882E3,9.172E3,2.371E3,1.0379E4,1.05E2,5.1274E4,1.8718E4,1.882E4,5.406E3,1.1105E4,4.505E3,1.0609E4,1.4192E4,1.3376E4,1.1941E4,1.5206E4,2.15E3,7.051E3,5.332E3,9.333E3,2.71E3,6.038E3,5.379E3,3.758E3,8.41E2,2.649E3,2.983E3,3.936E3,7.41E2,2.236E3,3.84E2,1.262E3],"tree_param":{"num_deleted":"0","num_feature":"9","num_nodes":"127","size_leaf_vector":"1"}},{"base_weights":[-4.637614E-5,-1.5324557E-1,8.4476426E-2,-3.233492E-1,-1.01784095E-1,4.2880934E-2,2.4429719E-1,-4.4249123E-1,-2.7410614E-1,-1.5008911E-1,-6.7391224E-2,9.2832865E-3,9.4253235E-2,2.0128003E-1,3.8067353E-1,-5.166419E-1,-4.0038246E-1,-3.1965905E-1,-2.4375549E-1,-1.7350681E-1,-1.219834E-1,-8.849167E-2,-5.087814E-2,-4.1814754E-3,3.3937108E-2,7.502705E-2,1.2043265E-1,1.7287676E-1,2.4776806E-1,3.4352773E-1,4.8472956E-1,-5.5504954E-1,-4.7075623E-1,-4.392334E-1,-3.7875476E-1,-3.358973E-1,-2.7931982E-1,-2.7427635E-1,-2.244114E-1,-2.0000401E-1,-1.5439983E-1,-1.5633075E-1,-1.0149442E-1,-1.1510918E-1,-7.539624E-2,-7.382758E-2,-3.9218172E-2,-1.9567914E-2,4.1157156E-3,2.502008E-2,5.2191045E-2,6.1831094E-2,1.0225666E-1,1.0506463E-1,1.5260252E-1,1.492687E-1,2.0514053E-1,1.98527E-1,2.6052883E-1,3.1512251E-1,3.7522364E-1,4.3182614E-1,5.300878E-1,-2.8604066E-2,-2.4736336E-2,-2.5108216E-2,-2.1905607E-2,7.13014E-3,-2.1992594E-2,-2.0326098E-2,-1.7634649E-2,-1.7767984E-2,-1.5661553E-2,-1.5648983E-2,-1.2664579E-2,-1.477133E-2,-1.2854074E-2,-1.2478018E-2,-9.76798E-3,-1.0976962E-2,-9.107615E-3,-9.242229E-3,-7.07815E-3,-8.668568E-3,-7.1720383E-3,-5.7730475E-3,-3.7303783E-3,-6.0996464E-3,-4.373719E-3,-4.486611E-3,-2.2728022E-3,-4.1600293E-3,-2.7306865E-3,-2.493323E-3,-6.3644693E-4,-1.7717151E-3,-5.778054E-4,9.860572E-5,7.9127867E-4,3.2193487E-4,1.803797E-3,1.8130044E-3,3.2318172E-3,1.8887491E-3,3.7451212E-3,4.091839E-3,5.739638E-3,4.0294635E-3,6.1796396E-3,6.4652087E-3,8.386772E-3,6.2058093E-3,8.52112E-3,9.1660125E-3,1.1497441E-2,9.115723E-3,1.1666928E-2,1.1911104E-2,1.4126702E-2,1.4569293E-2,1.7682835E-2,1.7510297E-2,2.0730535E-2,1.8492183E-2,2.2511957E-2,2.5565103E-2,3.1873073E-2],"categories":[],"categories_nodes":[],"categories_segments":[],"categories_sizes":[],"default_left":[0,0,1,0,0,1,0,0,0,1,0,1,0,0,0,0,0,0,0,0,0,0,0,0,0,0,0,0,0,0,0,1,0,0,1,1,0,0,1,0,0,0,0,1,1,1,1,0,1,0,0,0,0,0,0,0,0,0,0,0,0,0,0,0,0,0,0,0,0,0,0,0,0,0,0,0,0,0,0,0,0,0,0,0,0,0,0,0,0,0,0,0,0,0,0,0,0,0,0,0,0,0,0,0,0,0,0,0,0,0,0,0,0,0,0,0,0,0,0,0,0,0,0,0,0,0,0],"id":9,"left_children":[1,3,5,7,9,11,13,15,17,19,21,23,25,27,29,31,33,35,37,39,41,43,45,47,49,51,53,55,57,59,61,63,65,67,69,71,73,75,77,79,81,83,85,87,89,91,93,95,97,99,101,103,105,107,109,111,113,115,117,119,121,123,125,-1,-1,-1,-1,-1,-1,-1,-1,-1,-1,-1,-1,-1,-1,-1,-1,-1,-1,-1,-1,-1,-1,-1,-1,-1,-1,-1,-1,-1,-1,-1,-1,-1,-1,-1,-1,-1,-1,-1,-1,-1,-1,-1,-1,-1,-1,-1,-1,-1,-1,-1,-1,-1,-1,-1,-1,-1,-1,-1,-1,-1,-1,-1,-1],"loss_changes":[4.9814385E3,1.1973274E3,1.6481177E3,1.862649E2,1.7445471E2,3.3953903E2,3.002837E2,2.879712E1,3.1003418E1,2.8723083E1,2.136911E1,3.9482544E1,3.9142517E1,5.1352783E1,4.728308E1,5.6620483E0,4.8154297E0,5.7924194E0,7.906433E0,1.2029236E1,1.3955536E1,9.377899E0,9.205933E0,9.820778E0,6.8371887E0,1.6109573E1,1.6266602E1,1.837555E1,9.222778E0,8.029663E0,7.5146484E0,1.5909424E0,1.3568726E0,8.234863E-1,2.618164E0,2.7128296E0,2.1854553E0,1.8264465E0,5.9906006E0,3.439392E0,5.384674E0,1.604065E0,4.6620636E0,1.6781998E0,7.74424E0,2.0832558E0,6.436653E0,3.4254332E0,1.2544549E0,5.7985287E0,2.731144E0,9.497505E0,3.737976E0,1.0098618E1,3.73143E0,7.4054565E0,5.483673E0,1.6743164E0,5.6851196E0,4.2681885E0,4.064392E0,1.5397034E0,3.1696777E0,0E0,0E0,0E0,0E0,0E0,0E0,0E0,0E0,0E0,0E0,0E0,0E0,0E0,0E0,0E0,0E0,0E0,0E0,0E0,0E0,0E0,0E0,0E0,0E0,0E0,0E0,0E0,0E0,0E0,0E0,0E0,0E0,0E0,0E0,0E0,0E0,0E0,0E0,0E0,0E0,0E0,0E0,0E0,0E0,0E0,0E0,0E0,0E0,0E0,0E0,0E0,0E0,0E0,0E0,0E0,0E0,0E0,0E0,0E0,0E0,0E0,0E0,0E0,0E0],"parents":[2147483647,0,0,1,1,2,2,3,3,4,4,5,5,6,6,7,7,8,8,9,9,10,10,11,11,12,12,13,13,14,14,15,15,16,16,17,17,18,18,19,19,20,20,21,21,22,22,23,23,24,24,25,25,26,26,27,27,28,28,29,29,30,30,31,31,32,32,33,33,34,34,35,35,36,36,37,37,38,38,39,39,40,40,41,41,42,42,43,43,44,44,45,45,46,46,47,47,48,48,49,49,50,50,51,51,52,52,53,53,54,54,55,55,56,56,57,57,58,58,59,59,60,60,61,61,62,62],"right_children":[2,4,6,8,10,12,14,16,18,20,22,24,26,28,30,32,34,36,38,40,42,44,46,48,50,52,54,56,58,60,62,64,66,68,70,72,74,76,78,80,82,84,86,88,90,92,94,96,98,100,102,104,106,108,110,112,114,116,118,120,122,124,126,-1,-1,-1,-1,-1,-1,-1,-1,-1,-1,-1,-1,-1,-1,-1,-1,-1,-1,-1,-1,-1,-1,-1,-1,-1,-1,-1,-1,-1,-1,-1,-1,-1,-1,-1,-1,-1,-1,-1,-1,-1,-1,-1,-1,-1,-1,-1,-1,-1,-1,-1,-1,-1,-1,-1,-1,-1,-1,-1,-1,-1,-1,-1,-1],"split_conditions":[-5.3426553E-2,-3.4991404E-1,2.3982759E-1,-5.8684886E-1,-1.8316387E-1,7.687673E-2,4.7335887E-1,-7.3384154E-1,-4.6409902E-1,-2.2609332E-1,-1.20128185E-1,1.338939E-2,1.5898612E-1,3.3051768E-1,6.524271E-1,-8.073387E-1,-2.0174737E0,5.0000796E0,-1.4443005E0,-2.6800311E-3,-2.244362E0,-2.178062E0,-2.244362E0,-1.326518E-2,3.0576568E0,3.3924341E0,3.6723022E0,2.8358774E0,-6.226521E0,5.340221E-1,7.3671174E-1,-7.96606E-1,9.1326356E-1,1.562258E-17,-6.393898E-1,-4.9313298E-1,-5.3280926E-1,-4.063908E-1,-3.8691205E-1,-2.9263034E-1,-3.1354785E-1,-6.5300865E0,4.1578674E0,-8.868646E-2,-1.2620302E-1,-4.4069637E-2,-5.957863E-2,-2.3181164E0,1.5490253E-2,3.744184E-2,1.9949142E-2,9.653931E-2,7.421092E-2,1.7459284E-1,1.4598832E-1,2.5601727E-1,2.5601727E-1,4.0945727E-1,3.96468E-1,4.1578674E0,1.77531E0,-7.030267E0,1E0,-2.8604066E-2,-2.4736336E-2,-2.5108216E-2,-2.1905607E-2,7.13014E-3,-2.1992594E-2,-2.0326098E-2,-1.7634649E-2,-1.7767984E-2,-1.5661553E-2,-1.5648983E-2,-1.2664579E-2,-1.477133E-2,-1.2854074E-2,-1.2478018E-2,-9.76798E-3,-1.0976962E-2,-9.107615E-3,-9.242229E-3,-7.07815E-3,-8.668568E-3,-7.1720383E-3,-5.7730475E-3,-3.7303783E-3,-6.0996464E-3,-4.373719E-3,-4.486611E-3,-2.2728022E-3,-4.1600293E-3,-2.7306865E-3,-2.493323E-3,-6.3644693E-4,-1.7717151E-3,-5.778054E-4,9.860572E-5,7.9127867E-4,3.2193487E-4,1.803797E-3,1.8130044E-3,3.2318172E-3,1.8887491E-3,3.7451212E-3,4.091839E-3,5.739638E-3,4.0294635E-3,6.1796396E-3,6.4652087E-3,8.386772E-3,6.2058093E-3,8.52112E-3,9.1660125E-3,1.1497441E-2,9.115723E-3,1.1666928E-2,1.1911104E-2,1.4126702E-2,1.4569293E-2,1.7682835E-2,1.7510297E-2,2.0730535E-2,1.8492183E-2,2.2511957E-2,2.5565103E-2,3.1873073E-2],"split_indices":[6,6,6,6,6,6,6,6,6,5,6,6,6,5,5,6,4,4,4,4,4,4,4,6,4,4,4,4,4,5,6,5,4,0,5,5,5,6,5,6,5,4,4,5,5,5,5,4,5,5,5,5,5,5,5,5,5,6,6,4,4,4,6,0,0,0,0,0,0,0,0,0,0,0,0,0,0,0,0,0,0,0,0,0,0,0,0,0,0,0,0,0,0,0,0,0,0,0,0,0,0,0,0,0,0,0,0,0,0,0,0,0,0,0,0,0,0,0,0,0,0,0,0,0,0,0,0],"split_type":[0,0,0,0,0,0,0,0,0,0,0,0,0,0,0,0,0,0,0,0,0,0,0,0,0,0,0,0,0,0,0,0,0,0,0,0,0,0,0,0,0,0,0,0,0,0,0,0,0,0,0,0,0,0,0,0,0,0,0,0,0,0,0,0,0,0,0,0,0,0,0,0,0,0,0,0,0,0,0,0,0,0,0,0,0,0,0,0,0,0,0,0,0,0,0,0,0,0,0,0,0,0,0,0,0,0,0,0,0,0,0,0,0,0,0,0,0,0,0,0,0,0,0,0,0,0,0],"sum_hessian":[3.847E5,1.36781E5,2.47919E5,3.1768E4,1.05013E5,1.96721E5,5.1198E4,9.288E3,2.248E4,4.3672E4,6.1341E4,1.18937E5,7.7784E4,3.8923E4,1.2275E4,3.36E3,5.928E3,8.985E3,1.3495E4,2.382E4,1.9852E4,2.6928E4,3.4413E4,7.6925E4,4.2012E4,4.485E4,3.2934E4,2.4164E4,1.4759E4,9.049E3,3.226E3,1.823E3,1.537E3,2.113E3,3.815E3,6.401E3,2.584E3,5.23E3,8.265E3,9.976E3,1.3844E4,7.415E3,1.2437E4,8.877E3,1.8051E4,1.1592E4,2.2821E4,2.6949E4,4.9976E4,2.8226E4,1.3786E4,3.0212E4,1.4638E4,2.229E4,1.0644E4,1.3957E4,1.0207E4,3.041E3,1.1718E4,4.778E3,4.271E3,1.494E3,1.732E3,1.415E3,4.08E2,7.76E2,7.61E2,2E0,2.111E3,1.84E3,1.975E3,3.436E3,2.965E3,1.122E3,1.462E3,2.338E3,2.892E3,4.426E3,3.839E3,4.758E3,5.218E3,4.102E3,9.742E3,3.188E3,4.227E3,8.183E3,4.254E3,7.104E3,1.773E3,1.2205E4,5.846E3,7.789E3,3.803E3,1.6277E4,6.544E3,9.041E3,1.7908E4,4.2244E4,7.732E3,1.053E4,1.7696E4,6.048E3,7.738E3,1.0638E4,1.9574E4,5.571E3,9.067E3,9.606E3,1.2684E4,4.195E3,6.449E3,6.379E3,7.578E3,5.435E3,4.772E3,2.079E3,9.62E2,5.825E3,5.893E3,2.962E3,1.816E3,2.618E3,1.653E3,3.47E2,1.147E3,1.479E3,2.53E2],"tree_param":{"num_deleted":"0","num_feature":"9","num_nodes":"127","size_leaf_vector":"1"}},{"base_weights":[-4.9733673E-5,-1.4556889E-1,8.020735E-2,-3.0260843E-1,-9.505218E-2,3.8593296E-2,2.2411847E-1,-4.085362E-1,-2.518746E-1,-1.366929E-1,-6.1024826E-2,6.857756E-3,8.369068E-2,1.7624293E-1,3.3548278E-1,-4.9166802E-1,-3.7179828E-1,-2.8397003E-1,-2.1777895E-1,-1.6568339E-1,-1.1578379E-1,-7.5060986E-2,-4.130385E-2,-5.356971E-3,2.7497282E-2,6.413796E-2,1.0570786E-1,1.4808424E-1,2.0722789E-1,2.9675233E-1,4.333983E-1,-5.276128E-1,-4.4770846E-1,-4.0791705E-1,-3.523236E-1,-2.9791296E-1,-2.3359856E-1,-2.598603E-1,-1.9652578E-1,-2.0018032E-1,-1.5335375E-1,-1.2850145E-1,-8.714864E-2,-8.765684E-2,-4.640628E-2,-7.484656E-2,-2.6437048E-2,-2.0450614E-2,2.481911E-3,1.2087699E-2,3.568626E-2,5.168798E-2,8.893781E-2,8.071645E-2,1.235058E-1,1.3074253E-1,1.9177362E-1,1.7353457E-1,2.255021E-1,2.6935083E-1,3.2702333E-1,3.941251E-1,5.018126E-1,-2.7179284E-2,-2.3458268E-2,-2.2503814E-2,5.9450893E-3,-2.191103E-2,-1.9291634E-2,-1.884034E-2,-1.593778E-2,-1.5917331E-2,-1.3800039E-2,-1.223552E-2,-8.714895E-3,-1.3887102E-2,-1.2260532E-2,-1.0593999E-2,-8.377145E-3,-1.0860735E-2,-9.446494E-3,-8.460528E-3,-6.355797E-3,-6.907284E-3,-5.1962864E-3,-5.364964E-3,-3.0032822E-3,-5.405552E-3,-4.0111714E-3,-2.7074532E-3,-5.714055E-5,-4.252448E-3,-3.0071777E-3,-1.8121112E-3,-2.5508722E-4,-1.6033257E-3,-4.0612026E-4,-2.6706376E-4,2.699604E-4,-3.0740714E-4,1.0744383E-3,1.033946E-3,2.465842E-3,1.4868147E-3,3.183181E-3,3.0394231E-3,4.8304014E-3,2.9813054E-3,5.103738E-3,4.2460966E-3,6.6156746E-3,5.1970943E-3,7.2239595E-3,3.390012E-3,9.729261E-3,7.815143E-3,1.0397889E-2,1.0127079E-2,1.1977176E-2,1.24331415E-2,1.5184534E-2,1.4401646E-2,1.7274695E-2,1.8835483E-2,2.1560054E-2,2.2841416E-2,2.7070636E-2],"categories":[],"categories_nodes":[],"categories_segments":[],"categories_sizes":[],"default_left":[0,0,1,0,0,1,0,0,1,0,1,1,0,0,0,0,0,0,0,0,0,0,0,0,0,0,0,0,0,0,0,1,0,0,1,0,0,0,0,0,1,1,1,0,0,0,0,0,0,0,1,0,0,1,0,0,0,1,0,0,0,0,0,0,0,0,0,0,0,0,0,0,0,0,0,0,0,0,0,0,0,0,0,0,0,0,0,0,0,0,0,0,0,0,0,0,0,0,0,0,0,0,0,0,0,0,0,0,0,0,0,0,0,0,0,0,0,0,0,0,0,0,0,0,0,0,0],"id":10,"left_children":[1,3,5,7,9,11,13,15,17,19,21,23,25,27,29,31,33,35,37,39,41,43,45,47,49,51,53,55,57,59,61,63,65,67,69,71,73,75,77,79,81,83,85,87,89,91,93,95,97,99,101,103,105,107,109,111,113,115,117,119,121,123,125,-1,-1,-1,-1,-1,-1,-1,-1,-1,-1,-1,-1,-1,-1,-1,-1,-1,-1,-1,-1,-1,-1,-1,-1,-1,-1,-1,-1,-1,-1,-1,-1,-1,-1,-1,-1,-1,-1,-1,-1,-1,-1,-1,-1,-1,-1,-1,-1,-1,-1,-1,-1,-1,-1,-1,-1,-1,-1,-1,-1,-1,-1,-1,-1],"loss_changes":[4.495879E3,1.0855471E3,1.4858844E3,1.7888232E2,1.4669574E2,2.754505E2,2.9666162E2,3.2752563E1,2.458435E1,2.8203247E1,1.57690735E1,2.848008E1,3.4215942E1,3.3929443E1,6.3320557E1,4.9813843E0,5.119873E0,8.075989E0,9.719788E0,8.266357E0,9.840729E0,1.2009857E1,1.1813576E1,8.39691E0,5.299494E0,1.2996262E1,1.662091E1,1.5427155E1,1.1369507E1,9.859009E0,1.2537903E1,1.4356384E0,2.0552368E0,1.5809631E0,3.8814087E0,3.9776611E0,1.617218E0,8.91449E-1,3.1966248E0,9.426727E-1,5.9591675E0,4.4251404E0,4.5357437E0,3.5067444E0,3.562769E0,1.0863304E0,3.4346104E0,3.4737062E0,1.0660933E0,2.4989884E0,5.609001E0,7.36837E0,3.0324326E0,7.000725E0,7.409424E0,5.361084E0,2.0060272E0,3.834961E0,3.8235474E0,4.4001465E0,4.0004272E0,1.7850037E0,2.8255615E0,0E0,0E0,0E0,0E0,0E0,0E0,0E0,0E0,0E0,0E0,0E0,0E0,0E0,0E0,0E0,0E0,0E0,0E0,0E0,0E0,0E0,0E0,0E0,0E0,0E0,0E0,0E0,0E0,0E0,0E0,0E0,0E0,0E0,0E0,0E0,0E0,0E0,0E0,0E0,0E0,0E0,0E0,0E0,0E0,0E0,0E0,0E0,0E0,0E0,0E0,0E0,0E0,0E0,0E0,0E0,0E0,0E0,0E0,0E0,0E0,0E0,0E0,0E0,0E0],"parents":[2147483647,0,0,1,1,2,2,3,3,4,4,5,5,6,6,7,7,8,8,9,9,10,10,11,11,12,12,13,13,14,14,15,15,16,16,17,17,18,18,19,19,20,20,21,21,22,22,23,23,24,24,25,25,26,26,27,27,28,28,29,29,30,30,31,31,32,32,33,33,34,34,35,35,36,36,37,37,38,38,39,39,40,40,41,41,42,42,43,43,44,44,45,45,46,46,47,47,48,48,49,49,50,50,51,51,52,52,53,53,54,54,55,55,56,56,57,57,58,58,59,59,60,60,61,61,62,62],"right_children":[2,4,6,8,10,12,14,16,18,20,22,24,26,28,30,32,34,36,38,40,42,44,46,48,50,52,54,56,58,60,62,64,66,68,70,72,74,76,78,80,82,84,86,88,90,92,94,96,98,100,102,104,106,108,110,112,114,116,118,120,122,124,126,-1,-1,-1,-1,-1,-1,-1,-1,-1,-1,-1,-1,-1,-1,-1,-1,-1,-1,-1,-1,-1,-1,-1,-1,-1,-1,-1,-1,-1,-1,-1,-1,-1,-1,-1,-1,-1,-1,-1,-1,-1,-1,-1,-1,-1,-1,-1,-1,-1,-1,-1,-1,-1,-1,-1,-1,-1,-1,-1,-1,-1,-1,-1,-1],"split_conditions":[-5.3426553E-2,-3.4001914E-1,2.2642694E-1,-5.629449E-1,-1.7252614E-1,6.6684775E-2,4.2327377E-1,-7.3384154E-1,-4.1316995E-1,-2.4976563E-1,-8.868646E-2,6.6396957E-3,1.3999473E-1,2.8195173E-1,6.136564E-1,-8.073387E-1,-2.0174737E0,9.335385E0,-3.2047353E0,-3.2848127E0,3.1394722E0,3.7711587E0,-3.967258E0,-1.3834795E-3,-8.575836E-1,3.1394722E0,-5.4641E-1,6.80888E0,-2.6947675E0,4.8590603E-1,7.3671174E-1,-7.96606E-1,-3.6006014E0,-6.47122E-1,-6.0883415E-1,-4.8256737E-1,4.0671272E1,-3.9333335E-1,5.12012E0,-2.9963854E-1,-2.572198E-1,-1.5846236E-1,-1.9976002E-1,-3.6986325E0,2.2508255E1,-4.4069637E-2,2.2923656E0,7.3582065E-1,-3.8804665E0,3.5302505E-2,2.2110887E-2,8.519996E-2,4.4019647E-2,1.7776364E-1,1.10560715E-1,-2.6947675E0,1.5683645E-1,3.7282258E-1,3.3333334E-1,4.2554035E0,-3.8804665E0,4.0563154E0,8.9E0,-2.7179284E-2,-2.3458268E-2,-2.2503814E-2,5.9450893E-3,-2.191103E-2,-1.9291634E-2,-1.884034E-2,-1.593778E-2,-1.5917331E-2,-1.3800039E-2,-1.223552E-2,-8.714895E-3,-1.3887102E-2,-1.2260532E-2,-1.0593999E-2,-8.377145E-3,-1.0860735E-2,-9.446494E-3,-8.460528E-3,-6.355797E-3,-6.907284E-3,-5.1962864E-3,-5.364964E-3,-3.0032822E-3,-5.405552E-3,-4.0111714E-3,-2.7074532E-3,-5.714055E-5,-4.252448E-3,-3.0071777E-3,-1.8121112E-3,-2.5508722E-4,-1.6033257E-3,-4.0612026E-4,-2.6706376E-4,2.699604E-4,-3.0740714E-4,1.0744383E-3,1.033946E-3,2.465842E-3,1.4868147E-3,3.183181E-3,3.0394231E-3,4.8304014E-3,2.9813054E-3,5.103738E-3,4.2460966E-3,6.6156746E-3,5.1970943E-3,7.2239595E-3,3.390012E-3,9.729261E-3,7.815143E-3,1.0397889E-2,1.0127079E-2,1.1977176E-2,1.24331415E-2,1.5184534E-2,1.4401646E-2,1.7274695E-2,1.8835483E-2,2.1560054E-2,2.2841416E-2,2.7070636E-2],"split_indices":[6,6,6,6,6,6,6,6,5,6,5,6,6,5,6,6,4,4,4,4,4,4,4,5,4,4,4,4,4,5,6,5,1,6,5,6,4,6,4,6,5,5,5,4,4,5,4,4,4,5,5,5,5,5,5,4,5,5,6,4,4,4,1,0,0,0,0,0,0,0,0,0,0,0,0,0,0,0,0,0,0,0,0,0,0,0,0,0,0,0,0,0,0,0,0,0,0,0,0,0,0,0,0,0,0,0,0,0,0,0,0,0,0,0,0,0,0,0,0,0,0,0,0,0,0,0,0],"split_type":[0,0,0,0,0,0,0,0,0,0,0,0,0,0,0,0,0,0,0,0,0,0,0,0,0,0,0,0,0,0,0,0,0,0,0,0,0,0,0,0,0,0,0,0,0,0,0,0,0,0,0,0,0,0,0,0,0,0,0,0,0,0,0,0,0,0,0,0,0,0,0,0,0,0,0,0,0,0,0,0,0,0,0,0,0,0,0,0,0,0,0,0,0,0,0,0,0,0,0,0,0,0,0,0,0,0,0,0,0,0,0,0,0,0,0,0,0,0,0,0,0,0,0,0,0,0,0],"sum_hessian":[3.84954E5,1.3684E5,2.48114E5,3.3304E4,1.03536E5,1.92462E5,5.5652E4,1.0783E4,2.2521E4,4.6558E4,5.6978E4,1.12967E5,7.9495E4,3.8922E4,1.673E4,3.301E3,7.482E3,1.1597E4,1.0924E4,1.9506E4,2.7052E4,3.3285E4,2.3693E4,7.0968E4,4.1999E4,4.2106E4,3.7389E4,2.0394E4,1.8528E4,1.1991E4,4.739E3,1.81E3,1.491E3,2.614E3,4.868E3,9.079E3,2.518E3,3.662E3,7.262E3,5.132E3,1.4374E4,1.873E4,8.322E3,2.312E4,1.0165E4,7.275E3,1.6418E4,2.4258E4,4.671E4,1.4575E4,2.7424E4,2.8035E4,1.4071E4,1.5554E4,2.1835E4,1.4602E4,5.792E3,6.519E3,1.2009E4,6.299E3,5.692E3,3.015E3,1.724E3,1.415E3,3.95E2,1.485E3,6E0,1.094E3,1.52E3,2.809E3,2.059E3,4.691E3,4.388E3,2.118E3,4E2,1.641E3,2.021E3,4.743E3,2.519E3,2.034E3,3.098E3,8.956E3,5.418E3,1.3448E4,5.282E3,4.77E3,3.552E3,6.159E3,1.6961E4,8.68E3,1.485E3,4.292E3,2.983E3,1.1248E4,5.17E3,1.2489E4,1.1769E4,1.2687E4,3.4023E4,4.958E3,9.617E3,1.3054E4,1.437E4,9.897E3,1.8138E4,3.015E3,1.1056E4,7.828E3,7.726E3,4.06E3,1.7775E4,4.951E3,9.651E3,1.29E2,5.663E3,4.348E3,2.171E3,4.563E3,7.446E3,3.936E3,2.363E3,1.835E3,3.857E3,2.059E3,9.56E2,8.13E2,9.11E2],"tree_param":{"num_deleted":"0","num_feature":"9","num_nodes":"127","size_leaf_vector":"1"}},{"base_weights":[-1.04263534E-4,-1.4839259E-1,7.117351E-2,-3.0772346E-1,-1.03703134E-1,2.978781E-2,2.0405395E-1,-4.1254443E-1,-2.6577288E-1,-1.5561749E-1,-7.536423E-2,-3.3271858E-3,6.862781E-2,1.6137333E-1,3.181387E-1,-5.0231904E-1,-3.856464E-1,-3.065902E-1,-2.4015376E-1,-1.8085039E-1,-1.3487287E-1,-9.088079E-2,-5.1013894E-2,-2.7989566E-2,5.64431E-3,4.9163807E-2,9.147625E-2,1.3071711E-1,1.9068518E-1,2.8186882E-1,4.107559E-1,-5.180324E-1,-4.454832E-1,-4.1609198E-1,-3.6009267E-1,-3.3644882E-1,-2.8779793E-1,-2.6270568E-1,-2.1521457E-1,-1.9573037E-1,-1.4849102E-1,-1.635081E-1,-1.132618E-1,-1.0302285E-1,-6.1454143E-2,-8.114938E-2,-3.2692682E-2,-4.348615E-2,-1.834961E-2,6.5704994E-4,1.8977104E-2,2.4109568E-2,5.8471207E-2,6.1407078E-2,1.04641445E-1,1.1430516E-1,1.7252922E-1,1.5775885E-1,2.080032E-1,2.5569233E-1,3.1081334E-1,3.7525177E-1,4.7342777E-1,-2.7012823E-2,-2.4385104E-2,-2.5337433E-2,-2.0705132E-2,-2.2418883E-2,-1.969291E-2,-1.9541178E-2,-1.648043E-2,-1.7531736E-2,-1.584639E-2,-1.55024E-2,-1.2971247E-2,-1.3994018E-2,-1.2029777E-2,-1.1910005E-2,-9.4742365E-3,-1.0416084E-2,-8.854249E-3,-7.893789E-3,-4.3490487E-3,-9.021457E-3,-7.4004726E-3,-6.306305E-3,-4.2898264E-3,-5.7814796E-3,-4.3771504E-3,-4.1191345E-3,-2.1733881E-3,-4.775058E-3,-3.4401452E-3,-2.0973259E-3,-3.9512623E-4,-2.7749045E-3,-1.583867E-3,-1.5357239E-3,6.433511E-5,-6.25884E-4,1.8977678E-4,-1.5279984E-4,1.3753906E-3,3.3942738E-4,1.8374631E-3,1.9394056E-3,3.5070458E-3,1.9340821E-3,3.985197E-3,3.738368E-3,5.7226648E-3,4.3945382E-3,6.3563013E-3,3.8923533E-3,8.802733E-3,6.926605E-3,9.42507E-3,9.702754E-3,1.162671E-2,1.1866919E-2,1.4506734E-2,1.3961623E-2,1.6573207E-2,1.7396694E-2,1.9799795E-2,2.2779277E-2,2.899988E-2],"categories":[],"categories_nodes":[],"categories_segments":[],"categories_sizes":[],"default_left":[0,0,1,0,0,1,0,0,0,1,1,0,0,0,0,1,0,0,0,0,0,0,0,0,1,0,0,0,0,0,0,0,0,1,1,1,1,1,1,0,0,0,0,0,0,0,0,1,1,1,0,1,0,1,0,0,0,1,1,0,0,0,0,0,0,0,0,0,0,0,0,0,0,0,0,0,0,0,0,0,0,0,0,0,0,0,0,0,0,0,0,0,0,0,0,0,0,0,0,0,0,0,0,0,0,0,0,0,0,0,0,0,0,0,0,0,0,0,0,0,0,0,0,0,0,0,0],"id":11,"left_children":[1,3,5,7,9,11,13,15,17,19,21,23,25,27,29,31,33,35,37,39,41,43,45,47,49,51,53,55,57,59,61,63,65,67,69,71,73,75,77,79,81,83,85,87,89,91,93,95,97,99,101,103,105,107,109,111,113,115,117,119,121,123,125,-1,-1,-1,-1,-1,-1,-1,-1,-1,-1,-1,-1,-1,-1,-1,-1,-1,-1,-1,-1,-1,-1,-1,-1,-1,-1,-1,-1,-1,-1,-1,-1,-1,-1,-1,-1,-1,-1,-1,-1,-1,-1,-1,-1,-1,-1,-1,-1,-1,-1,-1,-1,-1,-1,-1,-1,-1,-1,-1,-1,-1,-1,-1,-1],"loss_changes":[4.0688445E3,8.8979126E2,1.4297535E3,1.2025757E2,1.4357117E2,2.5498029E2,3.0058813E2,1.869458E1,2.0371948E1,1.8014648E1,2.3849884E1,2.3677023E1,4.057016E1,4.0353394E1,5.6349243E1,1.3767395E0,4.5360107E0,4.131653E0,6.7022095E0,7.4564514E0,1.1688049E1,1.3771484E1,1.3565655E1,4.2632885E0,5.2175803E0,1.148761E1,1.660733E1,1.5054443E1,1.3064453E1,9.074646E0,1.0342651E1,6.8292236E-1,5.5339813E-1,1.791687E0,2.9457703E0,6.9332886E-1,2.84375E0,2.3272705E0,3.3330078E0,2.4624634E0,2.8153992E0,2.1064606E0,3.7993927E0,5.3167114E0,4.2372665E0,1.63974E0,3.5061111E0,1.5508957E0,4.2730846E0,2.361348E0,4.0150537E0,2.9218416E0,8.248657E0,5.311722E0,8.546692E0,5.332138E0,2.0524902E0,4.655838E0,5.104126E0,3.945343E0,3.6463623E0,1.5753174E0,2.9796143E0,0E0,0E0,0E0,0E0,0E0,0E0,0E0,0E0,0E0,0E0,0E0,0E0,0E0,0E0,0E0,0E0,0E0,0E0,0E0,0E0,0E0,0E0,0E0,0E0,0E0,0E0,0E0,0E0,0E0,0E0,0E0,0E0,0E0,0E0,0E0,0E0,0E0,0E0,0E0,0E0,0E0,0E0,0E0,0E0,0E0,0E0,0E0,0E0,0E0,0E0,0E0,0E0,0E0,0E0,0E0,0E0,0E0,0E0,0E0,0E0,0E0,0E0,0E0,0E0],"parents":[2147483647,0,0,1,1,2,2,3,3,4,4,5,5,6,6,7,7,8,8,9,9,10,10,11,11,12,12,13,13,14,14,15,15,16,16,17,17,18,18,19,19,20,20,21,21,22,22,23,23,24,24,25,25,26,26,27,27,28,28,29,29,30,30,31,31,32,32,33,33,34,34,35,35,36,36,37,37,38,38,39,39,40,40,41,41,42,42,43,43,44,44,45,45,46,46,47,47,48,48,49,49,50,50,51,51,52,52,53,53,54,54,55,55,56,56,57,57,58,58,59,59,60,60,61,61,62,62],"right_children":[2,4,6,8,10,12,14,16,18,20,22,24,26,28,30,32,34,36,38,40,42,44,46,48,50,52,54,56,58,60,62,64,66,68,70,72,74,76,78,80,82,84,86,88,90,92,94,96,98,100,102,104,106,108,110,112,114,116,118,120,122,124,126,-1,-1,-1,-1,-1,-1,-1,-1,-1,-1,-1,-1,-1,-1,-1,-1,-1,-1,-1,-1,-1,-1,-1,-1,-1,-1,-1,-1,-1,-1,-1,-1,-1,-1,-1,-1,-1,-1,-1,-1,-1,-1,-1,-1,-1,-1,-1,-1,-1,-1,-1,-1,-1,-1,-1,-1,-1,-1,-1,-1,-1,-1,-1,-1],"split_conditions":[-7.668639E-2,-3.8239473E-1,2.099113E-1,-6.1580724E-1,-2.1998343E-1,3.991779E-2,4.2327377E-1,-8.073387E-1,-4.9971896E-1,-2.761268E-1,-1.14093445E-1,-2.6741827E-2,1.2006631E-1,2.6237133E-1,6.136564E-1,-7.96606E-1,-1.9180259E-1,-1.3138956E0,7.9807657E-1,5.242229E0,-1.3138956E0,4.0563154E0,-2.8356066E0,-1.6138613E0,1.5490253E-2,-2.3181164E0,-2.3181164E0,6.647285E0,-2.760915E0,4.8590603E-1,7.3671174E-1,1.6398728E0,-4.059552E0,-6.768296E-1,-6.768296E-1,-5.119386E-1,-5.3280926E-1,-3.9995763E-1,-4.2730236E-1,-3.1344363E-1,3.3359608E1,-5.166421E0,5.4817657E0,-1.6008364E-1,-1.8382908E-1,-7.030267E0,3.7711587E0,-2.9440422E-2,-4.15669E-2,-6.676964E-3,-4.244766E0,8.973664E-2,5.0514337E-2,1.5964095E-1,1.0561479E-1,-2.8356066E0,1.4598832E-1,3.5042465E-1,3.401545E-1,4.8745317E0,-2.472047E0,-7.958296E-1,1E0,-2.7012823E-2,-2.4385104E-2,-2.5337433E-2,-2.0705132E-2,-2.2418883E-2,-1.969291E-2,-1.9541178E-2,-1.648043E-2,-1.7531736E-2,-1.584639E-2,-1.55024E-2,-1.2971247E-2,-1.3994018E-2,-1.2029777E-2,-1.1910005E-2,-9.4742365E-3,-1.0416084E-2,-8.854249E-3,-7.893789E-3,-4.3490487E-3,-9.021457E-3,-7.4004726E-3,-6.306305E-3,-4.2898264E-3,-5.7814796E-3,-4.3771504E-3,-4.1191345E-3,-2.1733881E-3,-4.775058E-3,-3.4401452E-3,-2.0973259E-3,-3.9512623E-4,-2.7749045E-3,-1.583867E-3,-1.5357239E-3,6.433511E-5,-6.25884E-4,1.8977678E-4,-1.5279984E-4,1.3753906E-3,3.3942738E-4,1.8374631E-3,1.9394056E-3,3.5070458E-3,1.9340821E-3,3.985197E-3,3.738368E-3,5.7226648E-3,4.3945382E-3,6.3563013E-3,3.8923533E-3,8.802733E-3,6.926605E-3,9.42507E-3,9.702754E-3,1.162671E-2,1.1866919E-2,1.4506734E-2,1.3961623E-2,1.6573207E-2,1.7396694E-2,1.9799795E-2,2.2779277E-2,2.899988E-2],"split_indices":[6,6,6,6,6,6,6,6,6,5,5,6,6,5,6,5,4,4,4,4,4,4,4,4,5,4,4,4,4,5,6,4,4,5,5,5,5,5,5,6,4,4,4,6,5,4,4,5,5,6,4,5,5,5,5,4,5,5,5,4,4,4,6,0,0,0,0,0,0,0,0,0,0,0,0,0,0,0,0,0,0,0,0,0,0,0,0,0,0,0,0,0,0,0,0,0,0,0,0,0,0,0,0,0,0,0,0,0,0,0,0,0,0,0,0,0,0,0,0,0,0,0,0,0,0,0,0],"split_type":[0,0,0,0,0,0,0,0,0,0,0,0,0,0,0,0,0,0,0,0,0,0,0,0,0,0,0,0,0,0,0,0,0,0,0,0,0,0,0,0,0,0,0,0,0,0,0,0,0,0,0,0,0,0,0,0,0,0,0,0,0,0,0,0,0,0,0,0,0,0,0,0,0,0,0,0,0,0,0,0,0,0,0,0,0,0,0,0,0,0,0,0,0,0,0,0,0,0,0,0,0,0,0,0,0,0,0,0,0,0,0,0,0,0,0,0,0,0,0,0,0,0,0,0,0,0,0],"sum_hessian":[3.84953E5,1.24967E5,2.59986E5,2.7372E4,9.7595E4,1.98244E5,6.1742E4,7.821E3,1.9551E4,3.4461E4,6.3134E4,1.07009E5,9.1235E4,4.4934E4,1.6808E4,1.799E3,6.022E3,7.535E3,1.2016E4,1.5545E4,1.8916E4,3.856E4,2.4574E4,2.8543E4,7.8466E4,4.9268E4,4.1967E4,2.1966E4,2.2968E4,1.2081E4,4.727E3,1.403E3,3.96E2,2.741E3,3.281E3,2.904E3,4.631E3,6.305E3,5.711E3,1.0645E4,4.9E3,8.133E3,1.0783E4,2.7295E4,1.1265E4,9.29E3,1.5284E4,1.0945E4,1.7598E4,5.7106E4,2.136E4,1.3346E4,3.5922E4,1.2781E4,2.9186E4,1.5777E4,6.189E3,7.92E3,1.5048E4,6.349E3,5.732E3,3.022E3,1.705E3,8E2,6.03E2,1.29E2,2.67E2,1.11E3,1.631E3,1.628E3,1.653E3,1.672E3,1.232E3,2.59E3,2.041E3,3.542E3,2.763E3,3.012E3,2.699E3,6.348E3,4.297E3,4.25E3,6.5E2,3.883E3,4.25E3,7.341E3,3.442E3,1.504E4,1.2255E4,5.205E3,6.06E3,4.293E3,4.997E3,1.1129E4,4.155E3,5.424E3,5.521E3,1.0798E4,6.8E3,1.0986E4,4.612E4,5.962E3,1.5398E4,5.631E3,7.715E3,1.3372E4,2.255E4,5.702E3,7.079E3,7.218E3,2.1968E4,5.158E3,1.0619E4,2.23E2,5.966E3,4.876E3,3.044E3,9.599E3,5.449E3,4.147E3,2.202E3,2.272E3,3.46E3,1.312E3,1.71E3,1.465E3,2.4E2],"tree_param":{"num_deleted":"0","num_feature":"9","num_nodes":"127","size_leaf_vector":"1"}},{"base_weights":[9.362115E-5,-1.486523E-1,6.403362E-2,-2.9736528E-1,-1.060913E-1,2.3642344E-2,1.8833545E-1,-3.919898E-1,-2.5669855E-1,-1.5503111E-1,-7.97001E-2,-5.8736675E-3,6.287004E-2,1.4961469E-1,3.0391344E-1,-4.765289E-1,-3.6661762E-1,-2.9116076E-1,-2.3200002E-1,-1.8341674E-1,-1.386744E-1,-9.7575106E-2,-6.12895E-2,-2.9417828E-2,5.379034E-3,4.4675596E-2,8.236538E-2,1.2477959E-1,1.8431322E-1,2.689402E-1,3.934782E-1,-4.9133086E-1,-4.2296344E-1,-3.95637E-1,-3.4156203E-1,-3.2308394E-1,-2.7485538E-1,-2.6490012E-1,-2.1612804E-1,-1.9935568E-1,-1.5055878E-1,-1.7327493E-1,-1.22236826E-1,-1.0631642E-1,-5.944186E-2,-8.92254E-2,-4.2954043E-2,-4.93129E-2,-2.1538295E-2,1.4678831E-4,1.6798062E-2,2.5967818E-2,5.5925507E-2,6.877458E-2,1.08252466E-1,1.0408592E-1,1.523348E-1,1.6080704E-1,2.1320951E-1,2.3756802E-1,2.910428E-1,3.5737458E-1,4.529524E-1,-2.552404E-2,-2.2940334E-2,7.2045E-3,-2.1238878E-2,-2.1381095E-2,-1.8687733E-2,-1.8572357E-2,-1.5566614E-2,-1.661176E-2,-1.5113574E-2,8.761583E-3,-1.3812536E-2,-1.3790572E-2,-1.2069571E-2,-1.1498859E-2,-9.174428E-3,-1.1071439E-2,-9.551312E-3,-8.032793E-3,-4.678122E-3,-9.257235E-3,-7.867922E-3,-6.7277537E-3,-4.769919E-3,-6.1344444E-3,-4.8139333E-3,-3.5514222E-3,-8.764914E-4,-4.9911016E-3,-3.5810482E-3,-2.5974463E-3,-9.571795E-4,-3.040049E-3,-1.8642353E-3,-1.665522E-3,-1.0530737E-4,-6.252722E-4,1.5272449E-4,-9.980468E-5,1.2858892E-3,5.7527696E-4,1.9888922E-3,1.8741878E-3,3.3128697E-3,2.4370386E-3,4.2222925E-3,3.8032818E-3,5.8697546E-3,4.0257107E-3,5.9090196E-3,6.293047E-3,8.284916E-3,6.3799806E-3,8.64036E-3,9.3736295E-3,1.1353118E-2,9.613717E-3,1.2712638E-2,1.32549135E-2,1.5614482E-2,1.5219586E-2,1.8629802E-2,2.1910392E-2,2.740699E-2],"categories":[],"categories_nodes":[],"categories_segments":[],"categories_sizes":[],"default_left":[0,0,1,0,0,1,1,0,0,1,1,0,0,0,0,1,0,0,0,0,0,0,0,0,1,0,0,0,0,0,0,0,0,1,1,1,0,1,1,0,0,0,0,0,0,0,0,1,1,1,0,0,0,0,0,0,0,0,0,0,0,0,0,0,0,0,0,0,0,0,0,0,0,0,0,0,0,0,0,0,0,0,0,0,0,0,0,0,0,0,0,0,0,0,0,0,0,0,0,0,0,0,0,0,0,0,0,0,0,0,0,0,0,0,0,0,0,0,0,0,0,0,0,0,0,0,0],"id":12,"left_children":[1,3,5,7,9,11,13,15,17,19,21,23,25,27,29,31,33,35,37,39,41,43,45,47,49,51,53,55,57,59,61,63,65,67,69,71,73,75,77,79,81,83,85,87,89,91,93,95,97,99,101,103,105,107,109,111,113,115,117,119,121,123,125,-1,-1,-1,-1,-1,-1,-1,-1,-1,-1,-1,-1,-1,-1,-1,-1,-1,-1,-1,-1,-1,-1,-1,-1,-1,-1,-1,-1,-1,-1,-1,-1,-1,-1,-1,-1,-1,-1,-1,-1,-1,-1,-1,-1,-1,-1,-1,-1,-1,-1,-1,-1,-1,-1,-1,-1,-1,-1,-1,-1,-1,-1,-1,-1],"loss_changes":[3.6591338E3,7.3204297E2,1.350923E3,9.893335E1,1.1613678E2,2.3513791E2,2.9527734E2,1.6414185E1,1.5255981E1,1.4601746E1,1.92211E1,3.0702726E1,3.0925354E1,4.2574585E1,5.176306E1,1.2051086E0,4.1933594E0,3.8214111E0,5.42157E0,6.0000916E0,1.1348663E1,9.874359E0,1.4739838E1,5.8738213E0,4.6848917E0,9.491386E0,1.4801605E1,1.6414398E1,1.3971008E1,8.190735E0,9.818481E0,6.3153076E-1,4.6549225E-1,1.7662964E0,2.7770996E0,3.8217163E-1,3.1753845E0,8.08136E-1,3.1594849E0,1.3825989E0,2.1517181E0,1.1867828E0,4.4688263E0,3.9509888E0,2.6842194E0,2.12043E0,3.721321E0,1.4667339E0,6.1411676E0,1.9783251E0,4.1305003E0,3.3828745E0,5.364212E0,8.662308E0,4.254776E0,5.458664E0,4.3504944E0,4.5104065E0,3.2539062E0,3.6760254E0,3.7670898E0,2.222931E0,2.2187195E0,0E0,0E0,0E0,0E0,0E0,0E0,0E0,0E0,0E0,0E0,0E0,0E0,0E0,0E0,0E0,0E0,0E0,0E0,0E0,0E0,0E0,0E0,0E0,0E0,0E0,0E0,0E0,0E0,0E0,0E0,0E0,0E0,0E0,0E0,0E0,0E0,0E0,0E0,0E0,0E0,0E0,0E0,0E0,0E0,0E0,0E0,0E0,0E0,0E0,0E0,0E0,0E0,0E0,0E0,0E0,0E0,0E0,0E0,0E0,0E0,0E0,0E0,0E0,0E0],"parents":[2147483647,0,0,1,1,2,2,3,3,4,4,5,5,6,6,7,7,8,8,9,9,10,10,11,11,12,12,13,13,14,14,15,15,16,16,17,17,18,18,19,19,20,20,21,21,22,22,23,23,24,24,25,25,26,26,27,27,28,28,29,29,30,30,31,31,32,32,33,33,34,34,35,35,36,36,37,37,38,38,39,39,40,40,41,41,42,42,43,43,44,44,45,45,46,46,47,47,48,48,49,49,50,50,51,51,52,52,53,53,54,54,55,55,56,56,57,57,58,58,59,59,60,60,61,61,62,62],"right_children":[2,4,6,8,10,12,14,16,18,20,22,24,26,28,30,32,34,36,38,40,42,44,46,48,50,52,54,56,58,60,62,64,66,68,70,72,74,76,78,80,82,84,86,88,90,92,94,96,98,100,102,104,106,108,110,112,114,116,118,120,122,124,126,-1,-1,-1,-1,-1,-1,-1,-1,-1,-1,-1,-1,-1,-1,-1,-1,-1,-1,-1,-1,-1,-1,-1,-1,-1,-1,-1,-1,-1,-1,-1,-1,-1,-1,-1,-1,-1,-1,-1,-1,-1,-1,-1,-1,-1,-1,-1,-1,-1,-1,-1,-1,-1,-1,-1,-1,-1,-1,-1,-1,-1,-1,-1,-1],"split_conditions":[-9.335573E-2,-3.9333335E-1,1.9926627E-1,-6.1580724E-1,-2.3361132E-1,3.991779E-2,4.132884E-1,-8.073387E-1,-4.9971896E-1,-3.0498284E-1,-1.4527342E-1,-2.6741827E-2,1.1309383E-1,2.7518204E-1,6.044672E-1,-7.96606E-1,-4.6207793E-2,-2.244362E0,-2.6947675E0,5.622067E0,-2.8356066E0,7.7332873E0,-2.244362E0,-2.9871528E0,6.588808E-3,-7.314377E-1,2.9947264E0,2.6067724E0,1.1923425E0,-1.6138613E0,7.3671174E-1,2.460076E0,1.562258E-17,-6.768296E-1,-6.768296E-1,-4.9313298E-1,1.562258E-17,-3.8691205E-1,-3.9995763E-1,-4.154917E0,3.3359608E1,-2.3590642E-1,4.7723713E0,-1.722906E-1,2.6780146E1,-8.868646E-2,4.4591613E0,-3.1985454E-2,-4.4069637E-2,-6.676964E-3,-3.1239731E0,8.973664E-2,4.4019647E-2,1.4060608E-1,8.742024E-2,2.0162612E-1,1.8438579E-1,-6.5291846E-1,3.3333334E-1,-9.664749E-1,4.934188E-1,-6.5300865E0,1E0,-2.552404E-2,-2.2940334E-2,7.2045E-3,-2.1238878E-2,-2.1381095E-2,-1.8687733E-2,-1.8572357E-2,-1.5566614E-2,-1.661176E-2,-1.5113574E-2,8.761583E-3,-1.3812536E-2,-1.3790572E-2,-1.2069571E-2,-1.1498859E-2,-9.174428E-3,-1.1071439E-2,-9.551312E-3,-8.032793E-3,-4.678122E-3,-9.257235E-3,-7.867922E-3,-6.7277537E-3,-4.769919E-3,-6.1344444E-3,-4.8139333E-3,-3.5514222E-3,-8.764914E-4,-4.9911016E-3,-3.5810482E-3,-2.5974463E-3,-9.571795E-4,-3.040049E-3,-1.8642353E-3,-1.665522E-3,-1.0530737E-4,-6.252722E-4,1.5272449E-4,-9.980468E-5,1.2858892E-3,5.7527696E-4,1.9888922E-3,1.8741878E-3,3.3128697E-3,2.4370386E-3,4.2222925E-3,3.8032818E-3,5.8697546E-3,4.0257107E-3,5.9090196E-3,6.293047E-3,8.284916E-3,6.3799806E-3,8.64036E-3,9.3736295E-3,1.1353118E-2,9.613717E-3,1.2712638E-2,1.32549135E-2,1.5614482E-2,1.5219586E-2,1.8629802E-2,2.1910392E-2,2.740699E-2],"split_indices":[6,6,6,6,6,6,5,6,6,5,5,6,6,5,5,5,4,4,4,4,4,4,4,4,5,4,4,4,4,4,6,4,0,5,5,5,0,5,5,4,4,5,4,3,4,5,4,5,5,6,4,5,5,5,5,5,5,3,6,3,6,4,6,0,0,0,0,0,0,0,0,0,0,0,0,0,0,0,0,0,0,0,0,0,0,0,0,0,0,0,0,0,0,0,0,0,0,0,0,0,0,0,0,0,0,0,0,0,0,0,0,0,0,0,0,0,0,0,0,0,0,0,0,0,0,0,0],"split_type":[0,0,0,0,0,0,0,0,0,0,0,0,0,0,0,0,0,0,0,0,0,0,0,0,0,0,0,0,0,0,0,0,0,0,0,0,0,0,0,0,0,0,0,0,0,0,0,0,0,0,0,0,0,0,0,0,0,0,0,0,0,0,0,0,0,0,0,0,0,0,0,0,0,0,0,0,0,0,0,0,0,0,0,0,0,0,0,0,0,0,0,0,0,0,0,0,0,0,0,0,0,0,0,0,0,0,0,0,0,0,0,0,0,0,0,0,0,0,0,0,0,0,0,0,0,0,0],"sum_hessian":[3.84732E5,1.15662E5,2.6907E5,2.5735E4,8.9927E4,2.03081E5,6.5989E4,7.733E3,1.8002E4,3.1503E4,5.8424E4,1.15886E5,8.7195E4,4.9431E4,1.6558E4,1.781E3,5.952E3,7.511E3,1.0491E4,1.1513E4,1.999E4,2.9641E4,2.8783E4,3.7475E4,7.8411E4,4.5104E4,4.2091E4,2.8813E4,2.0618E4,1.1911E4,4.647E3,1.389E3,3.92E2,2.751E3,3.201E3,2.533E3,4.978E3,3.409E3,7.082E3,7.749E3,3.764E3,6.435E3,1.3555E4,2.4112E4,5.529E3,1.1404E4,1.7379E4,1.063E4,2.6845E4,5.3773E4,2.4638E4,1.6939E4,2.8165E4,2.7603E4,1.4488E4,1.6458E4,1.2355E4,1.1373E4,9.245E3,4.928E3,6.983E3,2.896E3,1.751E3,8.65E2,5.24E2,1E0,3.91E2,1.11E3,1.641E3,1.604E3,1.597E3,1.749E3,7.84E2,1.5E1,4.963E3,2.321E3,1.088E3,4.968E3,2.114E3,2.116E3,5.633E3,3.196E3,5.68E2,3.68E3,2.755E3,9.288E3,4.267E3,9.16E3,1.4952E4,4.331E3,1.198E3,7.116E3,4.288E3,1.2613E4,4.766E3,5.435E3,5.195E3,1.6717E4,1.0128E4,1.0048E4,4.3725E4,7.93E3,1.6708E4,8.275E3,8.664E3,1.0115E4,1.805E4,1.2117E4,1.5486E4,3.207E3,1.1281E4,6.161E3,1.0297E4,4.148E3,8.207E3,3.022E3,8.351E3,3.24E3,6.005E3,1.33E3,3.598E3,3.15E3,3.833E3,6.51E2,